%YAML:1.0
opencv_ml_svm:
   format: 3
   svmType: C_SVC
   kernel:
      type: RBF
      gamma: 5.0624999999999998e-01
   C: 1.2500000000000000e+01
   term_criteria: { epsilon:1.1920928955078125e-07, iterations:1000 }
   var_count: 324
   class_count: 4
   class_labels: !!opencv-matrix
      rows: 4
      cols: 1
      dt: i
      data: [ 0, 1, 2, 3 ]
   sv_total: 55
   support_vectors:
      - [ 2.54849702e-01, 1.32935956e-01, 1.29873427e-02, 6.24261890e-03,
          7.44710937e-02, 1.03923075e-01, 2.05170512e-02, 8.58011097e-03,
          3.58685330e-02, 2.54849702e-01, 8.40619430e-02, 1.49899325e-03,
          1.81278703e-03, 2.54849702e-01, 2.54849702e-01, 8.62819795e-03,
          3.96273239e-03, 7.89637789e-02, 2.54849702e-01, 2.54849702e-01,
          9.59632322e-02, 2.54849702e-01, 1.75049514e-01, 2.20410690e-01,
          8.90191719e-02, 1.47882715e-01, 2.27161467e-01, 2.54849702e-01,
          8.61995071e-02, 9.35019180e-03, 1.95732281e-01, 2.54849702e-01,
          2.54849702e-01, 3.51476483e-02, 1.29323691e-01, 2.54849702e-01,
          3.07252377e-01, 9.05787870e-02, 2.25758544e-04, 1.58932514e-03,
          3.07252377e-01, 3.07252377e-01, 3.40406084e-03, 1.20541360e-03,
          1.06146902e-01, 3.07252377e-01, 4.14674729e-02, 4.29241889e-04,
          3.20303440e-03, 3.07252377e-01, 3.07252377e-01, 2.45121703e-03,
          6.96468342e-04, 1.54638708e-01, 2.63900161e-01, 3.28024104e-02,
          8.10801401e-04, 4.26552743e-02, 3.07252377e-01, 3.02483231e-01,
          2.32007471e-03, 4.52035815e-02, 2.13316664e-01, 8.65671486e-02,
          1.02175111e-02, 1.29407359e-04, 1.73418771e-03, 2.20695719e-01,
          1.46768853e-01, 1.42817199e-03, 6.26112381e-03, 3.85518149e-02,
          3.67513567e-01, 1.62526965e-02, 2.70185457e-03, 7.05940183e-03,
          3.67513567e-01, 3.67513567e-01, 0., 8.53246893e-05,
          2.52257437e-01, 3.67513567e-01, 3.37260291e-02, 2.22088024e-03,
          1.69938151e-02, 3.67513567e-01, 3.67513567e-01, 1.82406362e-02,
          1.03286020e-02, 2.24556834e-01, 2.78270170e-02, 8.78942141e-04,
          1.48827661e-04, 7.64290337e-04, 2.20561728e-01, 7.85502419e-02,
          5.39098755e-06, 2.56879102e-05, 6.68455148e-03, 1.79640180e-03,
          1.86845442e-04, 8.30618737e-05, 1.17098063e-03, 1.13147937e-01,
          3.51278074e-02, 2.45498886e-05, 8.18329590e-06, 6.42625906e-04,
          4.98770922e-02, 1.04647979e-01, 8.44839439e-02, 3.25274408e-01,
          1.80623800e-01, 8.48101899e-02, 5.73943369e-02, 1.84331849e-01,
          3.22209775e-01, 4.48352545e-02, 2.22729743e-02, 1.25302775e-02,
          3.25274408e-01, 3.25274408e-01, 8.23630765e-02, 2.36371551e-02,
          2.70082057e-01, 3.25274408e-01, 4.19919007e-02, 1.15618773e-03,
          1.22575334e-03, 1.35159940e-01, 5.25275134e-02, 2.76725495e-05,
          4.80108109e-04, 1.04783894e-02, 7.04564378e-02, 6.13021627e-02,
          9.46769258e-04, 2.91164289e-03, 3.25274408e-01, 2.34604344e-01,
          2.67501309e-04, 5.60598681e-04, 6.96837008e-02, 3.02929997e-01,
          2.99218446e-02, 6.88204251e-04, 2.84583331e-03, 3.01135987e-01,
          2.08685279e-01, 1.34802861e-02, 4.34311572e-04, 1.38513520e-01,
          3.01135987e-01, 5.86352646e-02, 7.70237602e-05, 5.31598867e-04,
          1.46178693e-01, 1.23928152e-01, 1.23834983e-03, 9.50533940e-05,
          5.72270229e-02, 3.01135987e-01, 8.47396851e-02, 4.06381179e-04,
          2.31646979e-03, 3.01135987e-01, 2.94076920e-01, 1.90816514e-04,
          9.78112730e-05, 9.06824842e-02, 3.01135987e-01, 2.40675762e-01,
          3.55366920e-03, 1.14933448e-03, 3.01135987e-01, 3.01135987e-01,
          1.25409495e-02, 1.88405276e-04, 6.54080659e-02, 3.01135987e-01,
          8.23439583e-02, 3.07702518e-04, 2.96341255e-04, 4.34177853e-02,
          6.91309869e-02, 1.38496573e-03, 1.09816421e-04, 9.57236998e-03,
          2.84233063e-01, 6.15647323e-02, 1.61177508e-04, 1.56174588e-04,
          9.81439743e-03, 2.41785850e-02, 2.24637392e-04, 6.84215629e-05,
          4.53383289e-03, 1.81803405e-01, 3.40847939e-01, 1.43524278e-02,
          2.68825307e-03, 2.80789346e-01, 3.40847939e-01, 5.27092852e-02,
          6.04689645e-04, 1.89089030e-02, 3.40847939e-01, 3.40847939e-01,
          4.33412082e-02, 9.19697341e-03, 2.50709325e-01, 3.40847939e-01,
          1.39636323e-01, 2.68899859e-03, 3.38154510e-02, 3.40847939e-01,
          2.27454171e-01, 2.14810353e-02, 2.10593157e-02, 9.44865048e-02,
          1.04610384e-01, 1.16361147e-02, 8.11767112e-03, 1.81027595e-02,
          2.57779032e-01, 2.86602467e-01, 5.69347292e-04, 1.51751869e-04,
          5.00052832e-02, 2.19413370e-01, 3.65887880e-02, 4.39187512e-03,
          1.84399839e-02, 2.86602467e-01, 2.23070785e-01, 2.47216672e-02,
          3.26104276e-02, 2.86602467e-01, 2.86602467e-01, 2.34124027e-02,
          1.75562743e-02, 5.06628640e-02, 2.86602467e-01, 2.86602467e-01,
          6.49090041e-04, 1.46602502e-03, 2.86602467e-01, 2.86602467e-01,
          7.26370439e-02, 9.37356893e-03, 7.62287378e-02, 2.86602467e-01,
          2.85161912e-01, 2.11020559e-03, 3.77708056e-05, 6.76313415e-02,
          2.63385892e-01, 5.78555204e-02, 3.85966472e-04, 5.98597014e-03,
          2.11965516e-01, 2.85161912e-01, 8.76230747e-03, 1.09129422e-03,
          1.08305559e-01, 2.85161912e-01, 1.19763404e-01, 1.44976599e-04,
          5.99724660e-03, 2.06555724e-01, 2.85161912e-01, 2.19097431e-03,
          9.23666928e-04, 1.83277905e-01, 2.85161912e-01, 9.87245664e-02,
          7.00150675e-04, 3.82156670e-02, 2.85161912e-01, 2.85161912e-01,
          5.46067720e-03, 1.56776083e-03, 8.76054168e-02, 2.85161912e-01,
          1.46266088e-01, 4.22233337e-04, 1.65541023e-02, 2.85161912e-01,
          2.82931089e-01, 2.48319898e-02, 3.45477322e-03, 1.09515704e-01,
          2.82931089e-01, 1.98873356e-01, 4.88711463e-04, 3.51169729e-03,
          2.30519742e-01, 2.82931089e-01, 4.73668762e-02, 8.58162344e-03,
          1.45567194e-01, 2.82931089e-01, 2.82931089e-01, 2.13167234e-03,
          1.43539524e-02, 2.82931089e-01, 2.72300333e-01, 1.14284409e-02,
          4.84106177e-03, 4.47272249e-02, 2.82931089e-01, 1.68288171e-01,
          5.64901158e-04, 5.85452048e-03, 2.82931089e-01, 1.63751632e-01,
          1.41727962e-02, 6.10090094e-03, 1.24227852e-02, 2.19811246e-01,
          1.43229529e-01, 7.06490967e-03, 5.94067713e-03, 1.64161041e-01 ]
      - [ 5.47237098e-02, 3.99011672e-02, 7.10505545e-02, 6.38396144e-02,
          4.75258625e-04, 6.91371315e-05, 5.38385473e-04, 1.31105524e-04,
          6.28465042e-03, 3.24220270e-01, 1.43288180e-01, 2.55356163e-01,
          3.24220270e-01, 2.57133424e-01, 6.55875057e-02, 5.31993881e-02,
          1.13191038e-01, 3.24220270e-01, 3.27865966e-02, 2.09639519e-02,
          4.83921990e-02, 6.58969954e-02, 1.04984571e-03, 6.10033530e-05,
          4.46796184e-04, 8.97037826e-05, 4.90596145e-03, 3.24220270e-01,
          7.57393688e-02, 1.95707217e-01, 3.24220270e-01, 3.24220270e-01,
          4.97173518e-02, 4.46781665e-02, 1.36560485e-01, 3.24220270e-01,
          2.46023327e-01, 1.60488114e-02, 2.95996442e-02, 1.97400168e-01,
          2.39653513e-01, 3.19800191e-02, 1.58213526e-02, 7.67856911e-02,
          2.68148065e-01, 1.71002641e-01, 2.18424510e-04, 6.24182227e-04,
          1.26603454e-01, 2.68148065e-01, 1.58055685e-02, 1.53106300e-03,
          5.25851622e-02, 2.68148065e-01, 1.39265880e-01, 9.61929280e-03,
          4.40198779e-02, 2.68148065e-01, 2.68148065e-01, 2.52332576e-02,
          1.35074174e-02, 1.61461905e-01, 2.68148065e-01, 1.18397288e-01,
          5.02573792e-03, 4.65732552e-02, 2.68148065e-01, 2.68148065e-01,
          1.51020931e-02, 3.55844153e-03, 2.68148065e-01, 2.68148065e-01,
          2.25342795e-01, 1.53033156e-02, 2.86195031e-03, 1.40267164e-01,
          2.80153573e-01, 1.63079556e-02, 2.98628787e-04, 2.01970879e-02,
          2.80153573e-01, 2.11431205e-01, 1.05753735e-01, 1.52791906e-02,
          1.07940555e-01, 2.80153573e-01, 5.84003367e-02, 3.07983588e-02,
          1.14193991e-01, 2.80153573e-01, 1.46976829e-01, 1.60272606e-02,
          2.80982479e-02, 2.68899232e-01, 2.80153573e-01, 2.07356233e-02,
          9.62447654e-03, 2.16018453e-01, 2.80153573e-01, 1.31353483e-01,
          6.72908723e-02, 9.61650722e-03, 1.65469229e-01, 2.80153573e-01,
          9.49379727e-02, 4.22778428e-02, 1.02829255e-01, 2.80153573e-01,
          8.12542886e-02, 1.05712585e-01, 3.72204222e-02, 1.46604106e-02,
          9.20245238e-03, 1.61063094e-02, 1.51545675e-02, 7.42891338e-03,
          1.19497590e-02, 2.79330820e-01, 1.73514977e-01, 4.89386730e-02,
          1.42411113e-01, 2.65352428e-01, 1.21349663e-01, 4.67094928e-02,
          3.82673070e-02, 1.99951977e-01, 8.64947811e-02, 1.91392750e-01,
          1.62073374e-01, 2.03335583e-01, 2.74436045e-02, 3.60974818e-02,
          5.07923737e-02, 5.49451821e-02, 3.41261476e-02, 2.79330820e-01,
          2.79330820e-01, 2.13868394e-01, 2.79330820e-01, 2.79330820e-01,
          2.42623910e-01, 1.55499220e-01, 2.79330820e-01, 2.79330820e-01,
          2.54563749e-01, 2.00904943e-02, 2.83770021e-02, 2.50024080e-01,
          2.54563749e-01, 6.32348135e-02, 8.33854452e-03, 6.86000437e-02,
          2.51365513e-01, 2.12106168e-01, 2.12233216e-02, 8.46795514e-02,
          2.54563749e-01, 2.54563749e-01, 5.89354187e-02, 1.01084979e-02,
          2.54563749e-01, 2.54563749e-01, 2.44894609e-01, 3.10041904e-02,
          2.29550786e-02, 1.93117276e-01, 2.54563749e-01, 1.10271998e-01,
          2.70732176e-02, 1.54944688e-01, 2.54563749e-01, 1.46502033e-01,
          1.42793152e-02, 2.52930168e-02, 1.01908408e-01, 2.54563749e-01,
          8.11168775e-02, 8.74646939e-03, 6.70672581e-02, 2.07035288e-01,
          1.60043389e-01, 5.48063368e-02, 1.19521573e-01, 3.29723507e-01,
          3.29723507e-01, 1.66269600e-01, 1.16077609e-01, 3.29723507e-01,
          3.29723507e-01, 3.10527883e-03, 2.23054783e-03, 2.28223135e-03,
          6.26714230e-02, 2.83730805e-01, 8.38084295e-02, 8.83752853e-02,
          1.35402903e-01, 1.29301503e-01, 1.03369430e-01, 3.65762934e-02,
          4.81049679e-02, 1.09432042e-01, 3.29723507e-01, 2.07242414e-01,
          1.04712851e-01, 1.90635040e-01, 2.95460880e-01, 6.38822443e-04,
          1.45179860e-03, 1.33403810e-03, 2.02406431e-03, 1.15468398e-01,
          5.79402372e-02, 7.14918226e-02, 7.57528692e-02, 5.78249432e-02,
          1.56272855e-02, 7.81588554e-02, 1.37483686e-01, 3.18048626e-01,
          3.17962058e-02, 1.68812163e-02, 3.29120904e-02, 5.58198951e-02,
          3.37645300e-02, 6.77754879e-02, 1.19143732e-01, 2.21712977e-01,
          3.89180988e-01, 3.89180988e-01, 1.04207300e-01, 1.00329861e-01,
          3.89180988e-01, 3.89180988e-01, 3.02612807e-05, 1.01139740e-05,
          8.35840357e-04, 1.79759208e-02, 3.61773651e-03, 0., 0.,
          1.48284860e-04, 1.66137615e-04, 3.56754474e-03, 2.26714485e-03,
          1.68358181e-02, 3.89180988e-01, 8.41517523e-02, 0.,
          3.96632531e-05, 5.88085353e-02, 7.55593553e-02, 2.21266691e-02,
          1.19664380e-02, 3.35746966e-02, 2.97264308e-01, 2.13058874e-01,
          3.13655920e-02, 1.30740274e-02, 2.97264308e-01, 2.97264308e-01,
          1.19355526e-02, 1.51767337e-03, 1.23936189e-02, 2.97264308e-01,
          1.63467959e-01, 1.90451555e-02, 6.93198934e-04, 2.32786819e-01,
          2.97264308e-01, 4.71903197e-03, 1.72455213e-03, 1.91809870e-02,
          2.97264308e-01, 8.79572779e-02, 4.31071589e-04, 9.15560522e-05,
          1.16239719e-01, 1.69715419e-01, 1.21045168e-02, 2.23550084e-03,
          4.33965623e-02, 2.97264308e-01, 1.88620061e-01, 2.32778653e-03,
          2.17848152e-04, 2.68619448e-01, 2.97264308e-01, 1.01588359e-02,
          5.99193911e-04, 4.53568902e-03, 1.17608763e-01, 1.54005393e-01,
          3.21557000e-02, 3.85892345e-03, 1.56534523e-01, 3.37999612e-01,
          1.42104633e-03, 0., 0., 2.10015685e-03, 1.78867728e-02,
          8.21030140e-03, 2.86062784e-03, 1.70250945e-02, 3.50112356e-02,
          2.21498795e-02, 5.66788437e-03, 1.77092999e-01, 3.53202194e-01,
          3.24303478e-01, 3.73662673e-02, 2.66129319e-02, 3.53202194e-01,
          3.53202194e-01, 7.68643012e-03, 2.01479089e-03, 1.02594361e-01,
          1.72767848e-01, 8.36954415e-02, 5.74482046e-02, 5.84859364e-02,
          3.53202194e-01, 3.53202194e-01 ]
      - [ 2.68331200e-01, 1.05412252e-01, 4.90455963e-02, 8.16898197e-02,
          9.82607231e-02, 9.84621942e-02, 1.96637027e-02, 5.34098037e-02,
          7.45650604e-02, 2.68331200e-01, 8.73863921e-02, 1.09834531e-02,
          3.86518985e-02, 2.68331200e-01, 2.68331200e-01, 9.52045061e-03,
          4.96038795e-02, 1.27450094e-01, 1.87656790e-01, 1.01314232e-01,
          9.48860124e-02, 2.68331200e-01, 1.31510556e-01, 1.06555767e-01,
          2.91969310e-02, 1.80916637e-01, 1.87490746e-01, 2.54675657e-01,
          5.35140075e-02, 3.02324872e-02, 2.68331200e-01, 2.68331200e-01,
          2.28426680e-01, 1.53002646e-02, 2.68331200e-01, 2.68331200e-01,
          3.03511590e-01, 7.99886286e-02, 1.20989753e-04, 1.68275728e-03,
          3.03511590e-01, 3.03511590e-01, 2.34984487e-04, 8.96028336e-03,
          1.26126885e-01, 3.03511590e-01, 1.17510520e-01, 5.13680466e-03,
          3.78734968e-03, 3.03511590e-01, 3.03511590e-01, 1.16560829e-03,
          1.04056625e-03, 8.77138078e-02, 1.75591797e-01, 1.85557660e-02,
          3.30659421e-03, 2.27780789e-01, 3.03511590e-01, 2.03833938e-01,
          1.53087499e-03, 1.58364147e-01, 3.03511590e-01, 5.67244999e-02,
          4.94134333e-03, 3.54405056e-04, 3.78943160e-02, 1.45301685e-01,
          8.50376263e-02, 1.32152345e-04, 3.83713730e-02, 1.78554624e-01,
          3.91405612e-01, 3.10712129e-01, 3.34118567e-02, 1.83446631e-02,
          3.91405612e-01, 3.91405612e-01, 6.03758618e-02, 8.94311443e-02,
          1.23698235e-01, 1.57460868e-01, 8.30089226e-02, 1.21494876e-02,
          6.77848188e-03, 3.91405612e-01, 3.90300632e-01, 1.38650641e-01,
          1.57613218e-01, 6.57030717e-02, 2.47656368e-02, 1.33267883e-03,
          0., 5.54730976e-03, 9.77511480e-02, 6.77572042e-02,
          4.55088477e-04, 1.87790114e-02, 1.02829337e-01, 9.80514815e-05,
          0., 0., 0., 5.48166875e-03, 3.39855650e-03, 9.07615831e-05,
          5.89487667e-04, 9.19826620e-04, 1.15478255e-01, 3.18541750e-02,
          2.78232787e-02, 2.45164320e-01, 6.35308400e-02, 2.21118461e-02,
          9.27122403e-03, 6.61022067e-02, 1.02574073e-01, 2.48711094e-01,
          1.13064712e-02, 1.37545252e-02, 2.79994100e-01, 2.55529732e-01,
          4.30888236e-02, 6.00851933e-03, 1.72092304e-01, 2.79994100e-01,
          2.79994100e-01, 1.08140565e-01, 8.11667293e-02, 1.95633650e-01,
          2.50225425e-01, 6.35449514e-02, 4.33227867e-02, 5.07992804e-02,
          2.23783121e-01, 2.79994100e-01, 2.93476377e-02, 1.29044969e-02,
          2.67839044e-01, 2.79994100e-01, 1.31731018e-01, 1.99270453e-02,
          6.96735755e-02, 2.79994100e-01, 2.24063799e-01, 6.47877110e-03,
          1.70892216e-02, 2.82713264e-01, 2.82713264e-01, 4.12663892e-02,
          1.36326498e-03, 1.27236933e-01, 2.82713264e-01, 1.19996332e-01,
          8.00285116e-03, 2.72142086e-02, 1.01833805e-01, 2.38794774e-01,
          5.30353114e-02, 2.30554305e-02, 9.30756778e-02, 2.82713264e-01,
          2.82713264e-01, 6.55942131e-03, 1.66578162e-02, 2.18314081e-01,
          2.82713264e-01, 1.15590446e-01, 4.75180830e-04, 5.92259094e-02,
          2.82713264e-01, 1.42968193e-01, 8.63084011e-03, 3.07117309e-02,
          9.35403854e-02, 2.82713264e-01, 1.12421788e-01, 3.30999494e-02,
          7.74891824e-02, 2.82713264e-01, 1.64474741e-01, 1.34856980e-02,
          4.25730012e-02, 5.04149161e-02, 3.47183198e-01, 2.01031119e-01,
          2.05384165e-01, 2.70894200e-01, 3.47183198e-01, 6.07072900e-04,
          0., 0., 0., 1.79155124e-03, 7.31548574e-03, 2.51830444e-02,
          1.75265912e-02, 8.05282407e-03, 1.78638101e-01, 1.52837941e-02,
          4.87978458e-02, 5.12696430e-02, 3.47183198e-01, 3.47183198e-01,
          2.93724090e-01, 2.82457709e-01, 3.47183198e-01, 9.42746119e-04,
          0., 0., 0., 4.21035383e-03, 1.38368467e-02, 3.57247144e-02,
          1.99627001e-02, 1.11019639e-02, 1.78351775e-01, 9.30026472e-02,
          1.05993114e-01, 3.44316691e-01, 3.44316691e-01, 5.67687377e-02,
          4.98837568e-02, 8.21282268e-02, 3.16538125e-01, 3.03010970e-01,
          2.16934364e-02, 1.50564900e-02, 3.44316691e-01, 3.44316691e-01,
          1.03053533e-01, 2.25985199e-02, 1.36346415e-01, 3.44316691e-01,
          8.09448131e-04, 8.98017752e-05, 4.82471747e-04, 6.02784939e-02,
          6.26970455e-02, 2.01056217e-04, 0., 2.71269958e-03,
          1.13499537e-02, 1.49194067e-02, 4.22839985e-05, 1.64955592e-04,
          2.09944382e-01, 2.29598567e-01, 9.17371945e-04, 0.,
          1.64919551e-02, 1.10547788e-01, 1.61173761e-01, 1.32852932e-03,
          3.08844564e-03, 2.94010073e-01, 2.94010073e-01, 5.36770262e-02,
          1.13471157e-04, 8.12100098e-02, 2.94010073e-01, 9.99912247e-02,
          1.58035464e-03, 6.19425625e-03, 2.94010073e-01, 2.94010073e-01,
          4.14910540e-02, 8.65249429e-03, 1.08323194e-01, 2.94010073e-01,
          2.43165549e-02, 2.72336438e-05, 1.40453194e-04, 2.30263442e-01,
          2.43798405e-01, 1.63994380e-03, 1.99445531e-05, 2.85586733e-02,
          1.90468490e-01, 4.36067246e-02, 3.96921823e-05, 1.16198510e-03,
          2.94010073e-01, 2.94010073e-01, 2.39621662e-03, 8.08925077e-04,
          8.94125625e-02, 2.94010073e-01, 5.37346341e-02, 5.90898213e-04,
          3.26452614e-03, 2.60853410e-01, 2.01955587e-01, 2.55304221e-02,
          1.55486250e-02, 1.53422013e-01, 3.15026999e-01, 1.32629396e-02,
          0., 9.54770192e-04, 6.45170137e-02, 2.26567946e-02,
          1.26057083e-03, 3.31809907e-03, 7.86518082e-02, 1.78374052e-01,
          4.74886224e-02, 5.59574750e-04, 1.99430399e-02, 3.15026999e-01,
          3.15026999e-01, 7.51938857e-03, 1.48655819e-02, 2.73366034e-01,
          3.15026999e-01, 2.38299742e-02, 1.00955949e-03, 3.82304601e-02,
          3.15026999e-01, 1.80275857e-01, 2.72998121e-02, 1.00964554e-01,
          3.15026999e-01, 3.15026999e-01 ]
      - [ 2.23005593e-01, 8.26240405e-02, 5.24122752e-02, 1.12043604e-01,
          7.40030929e-02, 3.95017155e-02, 2.01384816e-02, 1.66386906e-02,
          7.98118562e-02, 2.95365065e-01, 1.22468121e-01, 2.69012824e-02,
          1.31536409e-01, 2.95365065e-01, 2.82575816e-01, 2.58178543e-02,
          2.60374025e-02, 2.95365065e-01, 1.50056705e-01, 7.30857477e-02,
          6.71646595e-02, 2.53090560e-01, 1.55234292e-01, 3.79602537e-02,
          2.50009988e-02, 2.39255205e-02, 9.89652798e-02, 2.95365065e-01,
          7.24653080e-02, 3.44980843e-02, 2.95365065e-01, 2.95365065e-01,
          2.10328549e-01, 3.11887972e-02, 3.99011597e-02, 2.95365065e-01,
          2.67357409e-01, 7.23856986e-02, 1.08905649e-03, 2.49559507e-02,
          2.67357409e-01, 2.67357409e-01, 4.37961239e-03, 4.22225613e-03,
          1.94528863e-01, 2.67357409e-01, 7.12309331e-02, 3.09299980e-03,
          9.47978906e-03, 2.37538859e-01, 2.67357409e-01, 4.51318314e-03,
          3.52143007e-03, 1.38043925e-01, 2.67357409e-01, 2.65144166e-02,
          3.55068274e-04, 1.46565363e-01, 2.67357409e-01, 1.42040059e-01,
          4.47771745e-03, 8.21163598e-03, 2.67357409e-01, 2.67357409e-01,
          4.50071171e-02, 1.20289028e-02, 1.57966927e-01, 2.67357409e-01,
          1.26471296e-01, 9.00933892e-03, 3.11740376e-02, 2.67357409e-01,
          3.15267950e-01, 1.17368467e-01, 9.37812403e-03, 8.37189611e-03,
          3.15267950e-01, 3.15267950e-01, 2.19404902e-02, 1.24280173e-02,
          1.66925982e-01, 8.41326639e-02, 4.24623787e-02, 7.79229822e-03,
          1.45354017e-03, 1.06189661e-01, 2.52424091e-01, 3.70339081e-02,
          7.64336577e-03, 1.66304577e-02, 3.15267950e-01, 9.67596546e-02,
          6.34460822e-02, 2.39997491e-01, 3.15267950e-01, 2.75881618e-01,
          1.03218727e-01, 2.18189850e-01, 3.15267950e-01, 1.98958460e-02,
          1.15984036e-02, 1.59710441e-02, 1.42465876e-02, 5.19956462e-02,
          8.10181201e-02, 8.34341645e-02, 1.16535440e-01, 1.90399945e-01,
          6.66143596e-02, 3.71320806e-02, 1.22020077e-02, 8.19924772e-02,
          5.84710576e-02, 1.81099810e-02, 4.73627541e-03, 5.13698254e-03,
          2.40704324e-02, 2.94185638e-01, 1.22538000e-01, 6.86683366e-03,
          1.64349303e-01, 2.94185638e-01, 1.68995067e-01, 6.34020893e-03,
          1.23225832e-02, 1.45084739e-01, 2.94185638e-01, 2.68501997e-01,
          7.61404857e-02, 1.46462962e-01, 9.62113589e-02, 1.85635373e-01,
          4.98444177e-02, 3.30209918e-02, 1.21279567e-01, 2.94185638e-01,
          2.94185638e-01, 3.21127661e-02, 1.66343555e-01, 2.94185638e-01,
          2.94185638e-01, 4.93273027e-02, 5.73060773e-02, 2.94185638e-01,
          2.74499506e-01, 9.97225270e-02, 1.34819455e-03, 9.63367745e-02,
          2.74499506e-01, 2.35544115e-01, 2.93722190e-03, 6.55963877e-03,
          1.49938926e-01, 2.74499506e-01, 1.21443495e-01, 1.81658156e-02,
          1.49296522e-01, 2.74499506e-01, 2.74499506e-01, 1.60051771e-02,
          2.73493659e-02, 2.54472703e-01, 2.74499506e-01, 1.16425000e-01,
          1.29523047e-03, 3.02889124e-02, 2.50350684e-01, 2.74499506e-01,
          3.76874092e-03, 1.93993710e-02, 1.81598619e-01, 2.12166175e-01,
          5.07572852e-02, 2.37802556e-03, 4.59837262e-03, 1.78214580e-01,
          2.74499506e-01, 4.47080098e-03, 6.03483710e-03, 6.43022954e-02,
          3.35964769e-01, 2.02516139e-01, 9.32456031e-02, 2.68993378e-01,
          3.35964769e-01, 3.35964769e-01, 1.76391050e-01, 2.24296317e-01,
          3.35964769e-01, 2.41216049e-02, 1.97046958e-02, 2.31979676e-02,
          1.98524352e-02, 1.35114089e-01, 1.98660865e-01, 1.39056861e-01,
          1.32318988e-01, 1.70009181e-01, 1.66954011e-01, 4.40963469e-02,
          7.24520208e-03, 8.07683356e-03, 2.56111950e-01, 3.35964769e-01,
          2.37186253e-02, 5.96048264e-03, 4.76685986e-02, 1.51206218e-02,
          2.36811279e-03, 1.72753923e-03, 1.43339450e-03, 4.11621854e-02,
          5.09943776e-02, 1.62940007e-02, 3.98194836e-03, 1.43691376e-02,
          1.72884777e-01, 1.93126902e-01, 1.05104834e-01, 2.94364303e-01,
          1.82058513e-01, 1.41400650e-01, 5.61369993e-02, 4.96261641e-02,
          1.94833681e-01, 2.93168098e-01, 1.71527952e-01, 4.39708978e-02,
          2.94364303e-01, 2.94364303e-01, 2.94364303e-01, 5.38097136e-02,
          9.78109539e-02, 2.94364303e-01, 1.89149205e-03, 3.51915695e-03,
          1.20483199e-02, 1.21502988e-01, 6.98268339e-02, 1.85276987e-03,
          3.16458056e-03, 7.28445034e-03, 3.81640121e-02, 1.95105318e-02,
          1.66913157e-03, 5.22946753e-03, 2.94364303e-01, 2.94364303e-01,
          2.06902390e-03, 3.17353872e-03, 2.51324233e-02, 2.51819938e-01,
          1.27245545e-01, 2.41082758e-02, 1.03711704e-04, 2.83963680e-01,
          2.83963680e-01, 1.51876390e-01, 3.29230656e-03, 5.51367290e-02,
          2.83963680e-01, 1.69953659e-01, 1.00123696e-03, 0.,
          1.51826784e-01, 2.83963680e-01, 3.61395180e-02, 9.14780481e-04,
          2.90370323e-02, 2.83963680e-01, 4.05916274e-02, 1.35818351e-04,
          1.30190047e-05, 2.83963680e-01, 2.83963680e-01, 1.92589557e-03,
          9.99745331e-04, 3.03782914e-02, 2.83963680e-01, 1.70024216e-01,
          0., 0., 2.47501194e-01, 2.83963680e-01, 2.22910922e-02,
          5.14646759e-04, 2.43822206e-02, 2.83963680e-01, 2.78606594e-01,
          0., 0., 8.71141776e-02, 2.82720864e-01, 2.63459738e-02,
          1.18524977e-03, 6.02026097e-03, 2.82720864e-01, 2.05106869e-01,
          0., 0., 6.29625767e-02, 1.58500701e-01, 6.56966418e-02,
          4.34155278e-02, 3.33402678e-02, 2.82720864e-01, 2.82720864e-01,
          0., 0., 2.10964978e-01, 2.82720864e-01, 6.71744794e-02,
          2.31050537e-03, 6.93267211e-03, 2.82720864e-01, 2.53633022e-01,
          0., 0., 1.79700896e-01, 2.82720864e-01, 1.93452254e-01,
          8.60082060e-02, 5.29204756e-02, 2.82720864e-01 ]
      - [ 1.68017611e-01, 1.12248443e-01, 7.53934905e-02, 1.17360592e-01,
          6.66532665e-02, 3.17728072e-02, 1.66924912e-02, 2.37927288e-02,
          4.24238928e-02, 3.01895171e-01, 1.80420026e-01, 7.34440982e-02,
          3.01895171e-01, 3.01895171e-01, 3.01895171e-01, 4.16774750e-02,
          8.30897838e-02, 3.01895171e-01, 6.83279037e-02, 6.25359863e-02,
          6.44480437e-02, 1.45235449e-01, 9.25333425e-02, 2.11087205e-02,
          1.28926737e-02, 1.95103809e-02, 2.85429899e-02, 2.53252536e-01,
          8.53123814e-02, 6.33997843e-02, 3.01895171e-01, 3.01895171e-01,
          1.59293056e-01, 3.03070508e-02, 8.34512711e-02, 3.01895171e-01,
          2.61475921e-01, 4.59297784e-02, 2.82327738e-03, 1.05307057e-01,
          2.61475921e-01, 2.34270573e-01, 7.55109964e-03, 3.48361358e-02,
          2.61475921e-01, 2.61475921e-01, 5.09187579e-02, 9.87840700e-04,
          3.56681496e-02, 2.61475921e-01, 2.61475921e-01, 2.08495161e-03,
          2.02219654e-02, 1.91178933e-01, 1.35180756e-01, 1.11758420e-02,
          2.39956263e-03, 2.61475921e-01, 2.61475921e-01, 8.16801786e-02,
          4.71994793e-03, 5.39193340e-02, 2.61475921e-01, 1.76567510e-01,
          7.21659604e-03, 3.96141037e-03, 2.61475921e-01, 2.61475921e-01,
          4.50161882e-02, 1.14788197e-03, 7.40589425e-02, 2.61475921e-01,
          3.03304911e-01, 9.41385701e-02, 2.60679657e-03, 1.51889874e-02,
          3.03304911e-01, 3.03304911e-01, 1.09163802e-02, 2.05858015e-02,
          1.67078406e-01, 8.61108229e-02, 2.76685636e-02, 2.88166525e-03,
          2.13423627e-03, 1.40180543e-01, 1.92686573e-01, 2.74376050e-02,
          1.47920595e-02, 2.14696918e-02, 3.03304911e-01, 3.47852558e-02,
          3.92548852e-02, 3.03304911e-01, 3.03304911e-01, 1.08483240e-01,
          4.14261259e-02, 2.84744233e-01, 3.03304911e-01, 7.61215165e-02,
          2.42827851e-02, 3.15558277e-02, 9.65195671e-02, 9.24840569e-02,
          6.89987168e-02, 6.85773194e-02, 2.16189101e-01, 2.65111387e-01,
          1.09128840e-01, 4.37190682e-02, 6.04145369e-03, 1.96945742e-02,
          3.16661038e-02, 2.76990812e-02, 3.78449960e-03, 2.15005741e-04,
          1.44224195e-02, 3.03858966e-01, 5.76251782e-02, 3.63566214e-03,
          1.08234525e-01, 2.60882050e-01, 1.13739237e-01, 3.81998834e-03,
          6.74363691e-03, 1.10449634e-01, 3.03858966e-01, 2.13474661e-01,
          1.84785903e-01, 1.81047648e-01, 1.28775895e-01, 1.68110996e-01,
          7.99652338e-02, 8.04859921e-02, 1.43554941e-01, 3.03858966e-01,
          1.92711085e-01, 9.16487426e-02, 2.42482245e-01, 3.03858966e-01,
          3.03858966e-01, 7.67031536e-02, 1.31918371e-01, 3.03858966e-01,
          2.69321769e-01, 2.02078242e-02, 4.05237748e-04, 1.23746432e-01,
          2.69321769e-01, 1.15963034e-01, 8.76937178e-04, 1.36448722e-02,
          1.43042356e-01, 2.69321769e-01, 2.86930725e-02, 6.98683457e-03,
          2.43186310e-01, 2.69321769e-01, 1.96642414e-01, 3.52573302e-03,
          3.97973433e-02, 2.69321769e-01, 2.69321769e-01, 2.89662462e-02,
          2.99182924e-04, 4.95860241e-02, 2.69321769e-01, 2.55334258e-01,
          2.97498051e-03, 3.39963399e-02, 2.36826703e-01, 2.69321769e-01,
          2.00636592e-02, 1.56657782e-03, 1.38323400e-02, 2.69321769e-01,
          2.41358876e-01, 2.60127592e-03, 9.58471932e-03, 9.85565707e-02,
          2.92364001e-01, 7.17231035e-02, 5.87718338e-02, 2.92364001e-01,
          2.92364001e-01, 2.92364001e-01, 7.92624801e-02, 2.27126867e-01,
          2.92364001e-01, 1.21368751e-01, 4.53161150e-02, 4.97571304e-02,
          1.05326653e-01, 1.91300645e-01, 2.08978012e-01, 1.27360165e-01,
          2.17787534e-01, 2.05815777e-01, 2.83282071e-01, 2.74088867e-02,
          1.36714438e-02, 2.76733059e-02, 2.92364001e-01, 2.92364001e-01,
          2.71346904e-02, 1.89160574e-02, 6.00668043e-02, 4.18637656e-02,
          1.37660997e-02, 1.20499218e-02, 1.20709911e-02, 9.86459404e-02,
          1.20235868e-01, 4.02080491e-02, 2.52660438e-02, 1.76131725e-02,
          1.37383386e-01, 1.16528720e-01, 1.99835792e-01, 3.13930005e-01,
          1.82583064e-01, 9.87091586e-02, 6.78267032e-02, 1.03469841e-01,
          1.86664343e-01, 2.94771761e-01, 8.70950446e-02, 1.01487771e-01,
          3.13930005e-01, 3.13930005e-01, 2.15093344e-01, 6.48341775e-02,
          2.19050005e-01, 3.13930005e-01, 1.73285196e-03, 2.62304558e-04,
          1.06607527e-02, 9.40453261e-02, 5.37048876e-02, 2.06049939e-04,
          2.86830764e-04, 8.52353778e-03, 2.36787722e-02, 1.76893044e-02,
          3.24762688e-04, 6.10804185e-03, 3.13930005e-01, 2.76011080e-01,
          1.81808777e-04, 2.53085949e-04, 4.33425605e-02, 2.10637271e-01,
          1.30759194e-01, 6.46674307e-03, 1.01750740e-03, 2.87378758e-01,
          2.87378758e-01, 8.83056074e-02, 2.28208117e-03, 1.04459152e-01,
          2.87378758e-01, 6.42269030e-02, 4.90751700e-04, 9.61689104e-04,
          2.39693210e-01, 2.45064542e-01, 4.33581807e-02, 5.19914203e-04,
          8.11401382e-02, 2.87378758e-01, 2.59325448e-02, 5.43484239e-05,
          9.26733483e-04, 2.87378758e-01, 2.73057669e-01, 1.23526179e-03,
          2.37042070e-04, 4.99475896e-02, 2.87378758e-01, 4.56021205e-02,
          1.66266516e-04, 1.86066050e-03, 2.87378758e-01, 2.87378758e-01,
          1.81374815e-03, 4.13236034e-04, 8.98738652e-02, 2.87378758e-01,
          4.86853532e-02, 2.91431170e-05, 9.46652959e-04, 1.54110357e-01,
          1.39884263e-01, 1.46763995e-02, 3.93051596e-04, 7.38380328e-02,
          3.39756906e-01, 1.95923764e-02, 2.68523809e-06, 3.44273663e-04,
          2.86487788e-02, 1.95380319e-02, 8.84847774e-04, 4.63636970e-04,
          3.28635424e-02, 1.74069703e-01, 7.88128749e-02, 2.76563602e-04,
          6.67338166e-03, 3.39756906e-01, 3.39756906e-01, 4.74918447e-03,
          2.80431239e-03, 1.70198828e-01, 3.39756906e-01, 5.22080362e-02,
          8.84625333e-05, 1.44474339e-02, 3.39756906e-01, 3.39756906e-01,
          3.62480618e-02, 8.20868239e-02, 2.40826234e-01, 3.39756906e-01 ]
      - [ 2.28071392e-01, 1.35505065e-01, 5.64046316e-02, 5.34189008e-02,
          6.43713474e-02, 1.01853356e-01, 2.63235811e-02, 3.55651975e-02,
          5.75935170e-02, 2.74419874e-01, 1.25369459e-01, 2.08098702e-02,
          3.68655547e-02, 2.68140733e-01, 2.74419874e-01, 2.15816405e-02,
          4.06723395e-02, 1.40052959e-01, 1.60360605e-01, 1.43692717e-01,
          1.23527288e-01, 2.74419874e-01, 1.56374797e-01, 1.14756241e-01,
          4.56003547e-02, 1.02461979e-01, 1.71845451e-01, 2.74419874e-01,
          9.73082259e-02, 4.84596565e-02, 2.74419874e-01, 2.74419874e-01,
          2.71118969e-01, 3.68990488e-02, 1.86351717e-01, 2.74419874e-01,
          2.90468335e-01, 3.59978415e-02, 9.88299216e-05, 2.71622743e-03,
          2.90468335e-01, 2.90468335e-01, 8.24405637e-04, 6.65079337e-03,
          1.23242408e-01, 2.90468335e-01, 2.59124879e-02, 4.15496118e-02,
          4.94248383e-02, 2.90468335e-01, 2.46909559e-01, 2.72554928e-03,
          3.06057781e-02, 1.65591344e-01, 1.71190113e-01, 1.44843748e-02,
          1.07413461e-03, 2.72308916e-01, 2.90468335e-01, 1.69944912e-01,
          1.11364003e-03, 1.19811721e-01, 2.90468335e-01, 6.63661957e-02,
          8.91264470e-04, 1.29882377e-04, 9.63792205e-02, 2.16764569e-01,
          6.60388097e-02, 2.36081629e-04, 6.62619993e-02, 2.81866074e-01,
          3.26005727e-01, 1.13893420e-01, 1.93542361e-01, 2.41243526e-01,
          3.26005727e-01, 3.26005727e-01, 1.23614512e-01, 3.26005727e-01,
          3.26005727e-01, 3.99868563e-02, 3.13239917e-02, 4.72895876e-02,
          5.60457259e-02, 2.55497992e-01, 2.21084520e-01, 1.35822088e-01,
          2.16254458e-01, 1.47355661e-01, 4.21272665e-02, 3.67210538e-04,
          4.18429263e-04, 4.04130220e-02, 2.41892099e-01, 9.01017636e-02,
          3.44433170e-03, 5.88655658e-02, 2.38419488e-01, 2.84775579e-03,
          5.47560121e-05, 1.06007232e-04, 3.77021846e-04, 3.60570550e-02,
          2.16494258e-02, 3.46321473e-03, 4.64656483e-03, 1.49131846e-02,
          7.75693059e-02, 3.69222797e-02, 4.17990834e-02, 2.12476179e-01,
          1.02736257e-01, 1.88752003e-02, 1.27481613e-02, 4.08157632e-02,
          1.07711837e-01, 1.91371217e-01, 1.64785590e-02, 1.76781509e-02,
          2.93257773e-01, 2.93257773e-01, 2.89202146e-02, 1.04314368e-02,
          1.15864091e-01, 2.93257773e-01, 2.61871606e-01, 1.36698321e-01,
          1.16425179e-01, 2.27370724e-01, 1.78233787e-01, 4.27502953e-02,
          4.80673015e-02, 1.01565927e-01, 1.86663434e-01, 2.93257773e-01,
          5.81006557e-02, 4.32450660e-02, 2.69551456e-01, 2.93257773e-01,
          9.94347334e-02, 3.79776508e-02, 1.67524219e-01, 2.93257773e-01,
          1.38573840e-01, 3.29017872e-04, 9.66463063e-04, 2.71684587e-01,
          2.56082624e-01, 9.69401281e-03, 3.70820198e-04, 9.14910734e-02,
          2.71684587e-01, 1.43351197e-01, 7.63914734e-03, 1.05823288e-02,
          2.71684587e-01, 2.18521163e-01, 3.13644521e-02, 7.60720531e-03,
          1.17640190e-01, 2.71684587e-01, 2.71684587e-01, 6.45368928e-05,
          8.59089429e-04, 1.29450962e-01, 2.71684587e-01, 5.84472567e-02,
          8.48217634e-04, 4.30209301e-02, 2.71684587e-01, 2.71684587e-01,
          1.43505437e-02, 1.67421363e-02, 2.02974379e-01, 2.71684587e-01,
          1.23203993e-01, 1.42056802e-02, 5.88995479e-02, 2.71684587e-01,
          1.80019572e-01, 3.80165204e-02, 5.17561771e-02, 2.90369451e-01,
          2.44282931e-01, 1.64675534e-01, 8.60584378e-02, 2.51773655e-01,
          3.09595227e-01, 1.15441000e-02, 7.54939113e-03, 1.09984074e-02,
          7.94985425e-03, 1.26649700e-02, 5.59938923e-02, 5.29582016e-02,
          6.18905723e-02, 9.68703553e-02, 3.09595227e-01, 7.09513128e-02,
          8.40499923e-02, 2.96502829e-01, 3.09595227e-01, 3.09595227e-01,
          1.53963879e-01, 2.19361112e-01, 3.09595227e-01, 1.41619481e-02,
          1.38011090e-02, 1.82735343e-02, 1.08609097e-02, 4.68746237e-02,
          1.48816377e-01, 9.24517140e-02, 7.23025501e-02, 9.34863612e-02,
          1.19550265e-01, 8.87853578e-02, 1.23542555e-01, 3.25444907e-01,
          1.72317863e-01, 3.28698605e-02, 4.29853536e-02, 1.61414519e-01,
          2.01138988e-01, 2.31547251e-01, 3.73619497e-02, 5.60289994e-02,
          3.25444907e-01, 3.25444907e-01, 7.13337511e-02, 3.41717117e-02,
          3.25444907e-01, 3.25444907e-01, 5.46541880e-04, 4.15648101e-05,
          6.59183180e-03, 1.59679607e-01, 2.16717161e-02, 8.01773422e-05,
          1.27575287e-04, 2.64700614e-02, 3.17996852e-02, 1.18351914e-02,
          2.97857274e-04, 1.12001617e-02, 3.25444907e-01, 1.68770611e-01,
          1.17182266e-04, 5.64183691e-04, 1.44037157e-01, 2.88211882e-01,
          1.53172612e-01, 2.25251613e-04, 3.42712598e-03, 2.84156293e-01,
          2.86257267e-01, 4.36284542e-02, 8.84254929e-04, 1.47823229e-01,
          2.86257267e-01, 1.24007918e-01, 4.23999550e-03, 4.39990917e-03,
          9.81034562e-02, 2.86257267e-01, 6.83377087e-02, 4.41718940e-03,
          4.97299097e-02, 2.86257267e-01, 3.15259360e-02, 2.50421377e-04,
          2.86011375e-03, 2.86257267e-01, 2.62764871e-01, 5.68129937e-04,
          2.74506310e-04, 1.15042731e-01, 2.86257267e-01, 5.62094562e-02,
          2.38623834e-05, 3.35517502e-03, 2.86257267e-01, 2.86257267e-01,
          4.79317363e-03, 2.94669153e-04, 1.14005700e-01, 2.86257267e-01,
          1.18994281e-01, 1.78954881e-02, 1.92096699e-02, 7.15078712e-02,
          3.51315290e-01, 2.04646870e-01, 3.92395929e-02, 6.18489087e-02,
          3.26105297e-01, 8.77801888e-03, 3.42484470e-03, 4.19706106e-03,
          2.57933605e-03, 2.22281143e-02, 5.20845763e-02, 2.32804846e-02,
          1.67223066e-02, 3.92908826e-02, 1.46874532e-01, 0.,
          1.52090266e-02, 3.51315290e-01, 3.51315290e-01, 6.71273097e-02,
          9.05866399e-02, 2.99430668e-01, 3.51315290e-01, 6.80171698e-02,
          0., 5.03091095e-03, 1.30545929e-01, 1.56865701e-01,
          6.18018284e-02, 1.14468724e-01, 1.51729330e-01, 3.36367786e-01 ]
      - [ 0., 0., 0., 0., 0., 0., 0., 0., 0., 3.62200141e-01,
          3.14244717e-01, 3.62200141e-01, 3.62200141e-01, 9.60727781e-02,
          6.92297071e-02, 1.14527613e-01, 2.28750080e-01, 2.72479683e-01,
          3.87089141e-02, 7.62206910e-05, 0., 0., 0., 0., 3.11433469e-05,
          1.03811153e-05, 3.51534486e-02, 1.67183518e-01, 8.77374038e-02,
          3.62200141e-01, 3.62200141e-01, 3.78784165e-02, 2.67923605e-02,
          5.36690019e-02, 1.57948598e-01, 1.40045345e-01, 2.69112021e-01,
          4.82008234e-02, 1.57622650e-01, 2.50757486e-01, 1.31686881e-01,
          6.76361173e-02, 3.58719267e-02, 1.79600909e-01, 1.42668217e-01,
          2.69112021e-01, 5.87524213e-02, 9.60363671e-02, 1.50804803e-01,
          2.69112021e-01, 1.76723808e-01, 4.58757542e-02, 2.39685193e-01,
          2.09256425e-01, 4.38080244e-02, 1.46758556e-02, 1.90418884e-01,
          2.69112021e-01, 4.83085141e-02, 2.39566099e-02, 1.91746745e-02,
          2.57680893e-01, 9.87322554e-02, 4.10555750e-02, 6.60971506e-03,
          2.12583378e-01, 2.69112021e-01, 1.22127645e-01, 4.64607440e-02,
          2.30068248e-02, 2.69112021e-01, 2.11166099e-01, 3.16954046e-01,
          1.80562809e-01, 1.29176617e-01, 3.84058170e-02, 3.16954046e-01,
          3.16954046e-01, 2.24868938e-01, 2.87573546e-01, 3.16954046e-01,
          8.81662965e-03, 1.84570812e-02, 1.35381185e-02, 1.91364880e-03,
          4.14453335e-02, 1.09119415e-01, 9.75809544e-02, 6.79701343e-02,
          5.37882634e-02, 3.11683603e-02, 4.58303653e-03, 1.59304917e-01,
          3.16954046e-01, 1.96617290e-01, 9.69752297e-02, 3.49976271e-02,
          3.16954046e-01, 3.16954046e-01, 1.23761594e-03, 2.60237750e-04,
          5.42084977e-04, 3.44965770e-03, 1.00210868e-02, 1.71943922e-02,
          5.27119590e-03, 3.26400176e-02, 3.40396203e-02, 1.34854570e-01,
          4.30742353e-02, 6.04141280e-02, 7.57931694e-02, 4.56776954e-02,
          1.06196599e-02, 1.41566740e-02, 2.31508818e-02, 1.45010859e-01,
          2.18095273e-01, 1.69019289e-02, 2.82821581e-02, 9.23803598e-02,
          1.91985458e-01, 1.03940004e-02, 1.37811415e-02, 3.09443157e-02,
          3.09967071e-01, 1.62235439e-01, 6.52332604e-02, 1.70327827e-01,
          3.09967071e-01, 1.21126793e-01, 2.54576374e-02, 3.87767293e-02,
          1.59567118e-01, 2.59075999e-01, 2.93422580e-01, 2.58823130e-02,
          1.16332181e-01, 3.09967071e-01, 3.09967071e-01, 2.53522862e-02,
          4.23234999e-02, 3.09967071e-01, 3.09967071e-01, 1.47265404e-01,
          1.55125884e-03, 6.07272126e-02, 1.72365800e-01, 1.44245028e-01,
          9.91322845e-03, 1.24920416e-03, 6.44014478e-02, 2.37377748e-01,
          1.89742476e-01, 1.13011478e-02, 2.00277835e-01, 2.70487309e-01,
          1.54246300e-01, 4.54738028e-02, 1.34408008e-02, 2.70487309e-01,
          2.70487309e-01, 2.37507537e-01, 1.73831693e-04, 1.67981386e-02,
          1.92484200e-01, 2.70487309e-01, 3.54789197e-02, 3.64002120e-03,
          1.36013389e-01, 2.70487309e-01, 2.70487309e-01, 1.15400311e-02,
          6.79587200e-02, 1.67972848e-01, 2.70487309e-01, 1.39061153e-01,
          7.42622791e-03, 8.57053399e-02, 2.70487309e-01, 1.67894423e-01,
          2.98623648e-02, 2.24114656e-01, 2.97441334e-01, 2.39826307e-01,
          1.08553357e-01, 6.67182207e-02, 2.97441334e-01, 2.97441334e-01,
          7.36936321e-03, 6.08217111e-03, 1.35398377e-02, 1.49429236e-02,
          5.29937148e-02, 4.10072878e-02, 4.55848724e-02, 1.23397090e-01,
          1.17239714e-01, 2.53841460e-01, 3.80254760e-02, 1.38016254e-01,
          2.38763690e-01, 2.97441334e-01, 2.71691650e-01, 8.30660015e-02,
          2.96556681e-01, 2.97441334e-01, 8.36655870e-03, 8.00261088e-03,
          1.67090744e-02, 1.44553399e-02, 1.35347396e-01, 8.85704532e-02,
          7.19969124e-02, 1.14098750e-01, 9.99280214e-02, 3.19142044e-02,
          1.75994746e-02, 1.07078299e-01, 3.84153634e-01, 5.54975830e-02,
          1.01477364e-02, 1.76233687e-02, 1.47898152e-01, 1.25618488e-01,
          7.43445978e-02, 7.88985845e-03, 1.77401096e-01, 3.84153634e-01,
          3.17284375e-01, 1.03155682e-02, 2.51990259e-02, 3.84153634e-01,
          3.84153634e-01, 1.53731380e-05, 8.25210518e-05, 5.75380074e-03,
          4.57981825e-02, 8.20256188e-04, 0., 6.81065967e-06,
          4.52058995e-03, 2.95258570e-03, 2.61021662e-03, 7.61425123e-04,
          6.05152883e-02, 3.84153634e-01, 3.48433219e-02, 5.13667947e-05,
          1.49000029e-03, 1.82012603e-01, 1.60326615e-01, 6.37512356e-02,
          2.90879281e-04, 4.33724821e-02, 2.85976738e-01, 2.61348307e-01,
          1.49827441e-02, 4.98178229e-03, 2.85976738e-01, 2.85976738e-01,
          9.61916372e-02, 1.95255619e-03, 6.26123929e-03, 1.25554025e-01,
          2.66640782e-01, 5.29369414e-02, 1.83139939e-03, 8.24159235e-02,
          2.85976738e-01, 1.44107658e-02, 2.82284862e-04, 2.90359464e-02,
          2.85976738e-01, 1.38887584e-01, 1.58190378e-04, 1.27794780e-03,
          1.93329886e-01, 2.85976738e-01, 8.29747170e-02, 6.97534939e-04,
          3.54615995e-03, 2.85976738e-01, 2.85976738e-01, 3.92343570e-03,
          2.32699618e-04, 1.27331272e-01, 2.85976738e-01, 1.21819153e-01,
          7.95562845e-03, 1.53340288e-02, 3.86402830e-02, 3.15295219e-01,
          1.03691675e-01, 2.06148941e-02, 5.18602356e-02, 3.01351368e-01,
          2.03398336e-02, 1.71617023e-03, 3.20892618e-03, 1.99376117e-03,
          5.26365116e-02, 2.93323807e-02, 1.89230312e-02, 2.66162399e-02,
          5.73067181e-02, 3.03944319e-01, 4.33145370e-03, 9.57553915e-04,
          3.35428029e-01, 3.35428029e-01, 7.29665607e-02, 6.80718645e-02,
          2.44131356e-01, 3.35428029e-01, 1.28381655e-01, 1.68611633e-03,
          2.72580248e-04, 1.45110697e-01, 2.27734998e-01, 7.61053488e-02,
          1.22898586e-01, 2.12615862e-01, 3.35428029e-01 ]
      - [ 2.05704942e-01, 9.25518051e-02, 7.39921853e-02, 1.56509519e-01,
          8.73951837e-02, 2.80074161e-02, 1.46399336e-02, 3.86090949e-02,
          5.33685498e-02, 3.00481349e-01, 1.62993073e-01, 5.97537532e-02,
          3.00481349e-01, 3.00481349e-01, 2.69460112e-01, 3.20973136e-02,
          1.66841537e-01, 3.00481349e-01, 7.06498250e-02, 4.46571074e-02,
          4.94136810e-02, 1.75355777e-01, 8.85574669e-02, 1.39213484e-02,
          9.37728677e-03, 2.73886174e-02, 3.72347049e-02, 2.04331517e-01,
          5.66875748e-02, 4.09346968e-02, 3.00481349e-01, 3.00481349e-01,
          1.06387131e-01, 2.04224996e-02, 1.75278232e-01, 3.00481349e-01,
          2.58818001e-01, 4.99818213e-02, 3.02906986e-03, 1.19241029e-01,
          2.58818001e-01, 2.41229653e-01, 5.45385666e-03, 7.42049515e-02,
          2.58818001e-01, 2.58818001e-01, 2.81573012e-02, 2.00362597e-03,
          1.71039905e-02, 2.58818001e-01, 2.58818001e-01, 1.71539641e-03,
          2.12512445e-02, 1.17690608e-01, 1.23369612e-01, 8.79782531e-03,
          3.20427259e-03, 2.58818001e-01, 2.58818001e-01, 6.87323511e-02,
          3.30115389e-03, 1.37360856e-01, 2.58818001e-01, 2.20103860e-01,
          1.14729358e-02, 1.02692619e-02, 2.54563302e-01, 2.58818001e-01,
          6.49316683e-02, 1.62921043e-03, 8.99767652e-02, 2.58818001e-01,
          3.28693897e-01, 8.32460672e-02, 1.03326282e-02, 2.98533961e-03,
          3.28693897e-01, 3.28693897e-01, 2.86249667e-02, 2.37389002e-02,
          1.11838497e-01, 7.46456236e-02, 4.13309820e-02, 6.18385850e-03,
          1.02966628e-03, 2.04754695e-01, 1.70051143e-01, 6.02764934e-02,
          3.58819142e-02, 4.04191986e-02, 3.28693897e-01, 4.65143211e-02,
          6.47777915e-02, 2.18233928e-01, 3.28693897e-01, 2.05807030e-01,
          5.77052869e-02, 1.94792882e-01, 3.28693897e-01, 3.98035496e-02,
          1.20669259e-02, 2.43821219e-02, 2.21432596e-02, 6.59943447e-02,
          8.67886692e-02, 6.69541880e-02, 1.24337927e-01, 2.65638620e-01,
          1.82484418e-01, 7.75871351e-02, 2.62528807e-02, 1.75055973e-02,
          6.84865862e-02, 4.12030481e-02, 2.01371703e-02, 7.30659021e-03,
          4.59445752e-02, 2.66418159e-01, 3.73037755e-02, 1.05500454e-02,
          1.53389961e-01, 2.66418159e-01, 1.40502900e-01, 1.30098425e-02,
          2.18504276e-02, 1.67751953e-01, 2.65280157e-01, 2.03671858e-01,
          2.66418159e-01, 1.94626987e-01, 2.14753687e-01, 1.18548483e-01,
          1.23671405e-01, 1.50455073e-01, 2.03813657e-01, 2.66418159e-01,
          8.37479308e-02, 8.88647959e-02, 2.03899696e-01, 2.66418159e-01,
          2.66418159e-01, 8.02418590e-02, 1.59214780e-01, 2.66418159e-01,
          2.66002238e-01, 1.12561518e-02, 2.33551045e-03, 2.42322907e-01,
          2.66002238e-01, 1.31785035e-01, 1.56142842e-03, 4.14238535e-02,
          2.26796716e-01, 2.66002238e-01, 3.51000465e-02, 1.59093924e-02,
          2.48235449e-01, 2.66002238e-01, 2.32536450e-01, 5.01110405e-03,
          5.22701852e-02, 2.66002238e-01, 2.66002238e-01, 1.04105454e-02,
          1.60003675e-03, 4.21609208e-02, 2.66002238e-01, 1.90215021e-01,
          1.41179399e-03, 2.53577400e-02, 2.12711304e-01, 2.31989771e-01,
          1.71140786e-02, 2.59203347e-03, 1.61354672e-02, 2.66002238e-01,
          1.90671727e-01, 3.16175167e-03, 3.72486399e-03, 8.51627290e-02,
          3.29979271e-01, 9.39613283e-02, 9.04624760e-02, 2.45774955e-01,
          3.29979271e-01, 3.29979271e-01, 9.61856991e-02, 1.96284562e-01,
          3.29979271e-01, 4.42357585e-02, 2.20898893e-02, 3.49595137e-02,
          3.09366286e-02, 1.55233696e-01, 2.05155879e-01, 1.08977601e-01,
          1.44799367e-01, 2.28179291e-01, 2.06733227e-01, 3.23460773e-02,
          1.65391620e-02, 3.05467900e-02, 3.29979271e-01, 3.29979271e-01,
          2.51287185e-02, 2.07721014e-02, 5.31822518e-02, 8.98096804e-03,
          6.25075353e-03, 6.61104731e-03, 5.86287677e-03, 7.06544667e-02,
          8.48199427e-02, 2.64357682e-02, 1.86865237e-02, 1.23954611e-02,
          6.46624863e-02, 8.43113214e-02, 2.53647119e-01, 3.14094990e-01,
          2.13251382e-01, 5.03436550e-02, 8.54933038e-02, 1.80316344e-01,
          2.62125373e-01, 1.19573347e-01, 3.10715288e-02, 8.52081999e-02,
          3.14094990e-01, 3.14094990e-01, 1.01050168e-01, 5.61575182e-02,
          2.79505998e-01, 3.14094990e-01, 2.93471909e-04, 2.41600239e-04,
          6.69389497e-03, 1.23937838e-01, 5.45179620e-02, 1.12743401e-04,
          4.76494664e-04, 1.17484713e-02, 3.22248414e-02, 1.59082394e-02,
          6.38172060e-05, 2.95841903e-03, 3.14094990e-01, 2.64589876e-01,
          2.02382589e-03, 5.40027337e-04, 5.84410802e-02, 2.53293037e-01,
          9.58342850e-02, 9.52654344e-04, 9.01162100e-04, 2.88743347e-01,
          2.88743347e-01, 4.62944843e-02, 2.86396855e-04, 9.03878286e-02,
          2.88743347e-01, 1.13521427e-01, 1.46478109e-04, 2.91908218e-04,
          1.74745709e-01, 2.85481334e-01, 1.67372860e-02, 3.28758993e-04,
          3.36505063e-02, 2.88743347e-01, 5.12863621e-02, 0.,
          4.13439266e-04, 2.88743347e-01, 2.88743347e-01, 3.76899308e-03,
          5.30364487e-05, 4.33232300e-02, 2.88743347e-01, 1.08028531e-01,
          2.51798512e-04, 1.10337511e-03, 2.88743347e-01, 2.88743347e-01,
          6.77108532e-03, 2.74658494e-04, 3.62467431e-02, 2.88743347e-01,
          1.51192740e-01, 1.02436337e-04, 1.07068371e-03, 1.34892836e-01,
          2.20746800e-01, 1.02077173e-02, 4.25443938e-03, 2.53912359e-02,
          3.16079885e-01, 1.12407684e-01, 4.49918625e-05, 1.97496335e-03,
          4.74110916e-02, 8.63113925e-02, 2.22042911e-02, 3.90413813e-02,
          2.78987903e-02, 2.68243223e-01, 2.28880331e-01, 1.06363615e-03,
          6.52929163e-03, 3.16079885e-01, 3.16079885e-01, 4.06136997e-02,
          1.51238712e-02, 4.15278710e-02, 3.16079885e-01, 2.11668819e-01,
          1.21750846e-03, 1.16744293e-02, 2.41925627e-01, 3.16079885e-01,
          1.53890610e-01, 1.45816654e-01, 7.29132518e-02, 3.16079885e-01 ]
      - [ 3.71871367e-02, 5.08757830e-02, 8.73614382e-03, 6.09934388e-04,
          6.88094995e-04, 1.07172113e-02, 5.80649916e-03, 2.17707362e-03,
          1.32077117e-03, 3.01860362e-01, 3.01860362e-01, 1.46477306e-02,
          1.68093026e-03, 3.57373096e-02, 3.01860362e-01, 3.60472575e-02,
          1.04492260e-02, 9.93962307e-03, 8.94295424e-02, 1.85799137e-01,
          1.78278252e-01, 1.06903397e-01, 5.97672444e-03, 3.90852056e-02,
          3.98247726e-02, 6.15594871e-02, 1.28711183e-02, 3.01860362e-01,
          3.01860362e-01, 3.01860362e-01, 2.89793730e-01, 1.52013555e-01,
          3.01860362e-01, 1.84620604e-01, 3.01860362e-01, 1.63745135e-01,
          2.98096985e-01, 2.98096985e-01, 6.30390132e-03, 3.43907566e-04,
          3.46845910e-02, 2.98096985e-01, 6.41312450e-02, 2.94549810e-03,
          5.79007855e-03, 2.35124975e-01, 2.98096985e-01, 1.16621116e-02,
          0., 1.56987477e-02, 2.98096985e-01, 1.07970431e-01,
          1.17717718e-03, 1.46639254e-03, 2.98096985e-01, 2.54472196e-01,
          5.79845123e-02, 6.24795295e-02, 1.24091804e-01, 2.98096985e-01,
          7.59361684e-02, 1.52960971e-01, 1.53039321e-01, 2.44793817e-01,
          5.80093302e-02, 6.08045701e-03, 4.81596636e-03, 5.03815711e-02,
          2.69922137e-01, 5.20575233e-02, 2.32345462e-02, 1.42347649e-01,
          2.95206219e-01, 4.10613060e-01, 5.70206679e-02, 0.,
          2.72557829e-02, 4.10613060e-01, 3.86696607e-01, 1.57655776e-02,
          5.53657592e-04, 0., 1.46865135e-03, 1.27339968e-03, 0.,
          1.07472739e-03, 4.64688800e-02, 3.27567868e-02, 4.20988118e-03,
          0., 3.30925286e-01, 1.18655935e-02, 4.31262283e-03,
          2.68012937e-03, 7.55538419e-02, 3.40147167e-01, 2.04831094e-01,
          1.32645592e-01, 3.51952940e-01, 0., 0., 0., 0., 0., 0.,
          2.03233189e-03, 6.77443866e-04, 0., 5.20083383e-02,
          7.38603845e-02, 1.25908211e-01, 1.05649225e-01, 8.25407542e-03,
          1.09889507e-02, 1.64683405e-02, 3.82629037e-02, 9.17576533e-03,
          2.58926898e-01, 2.11323693e-01, 2.58926898e-01, 2.58926898e-01,
          2.54701853e-01, 2.54480571e-01, 8.02855864e-02, 2.58926898e-01,
          1.85618579e-01, 8.07836801e-02, 8.67804140e-02, 7.47656524e-02,
          1.27698749e-01, 3.23370583e-02, 5.15531097e-03, 1.15029765e-02,
          1.38578732e-02, 1.13237929e-02, 2.58926898e-01, 2.22407594e-01,
          1.35739818e-01, 2.58926898e-01, 2.58926898e-01, 2.53633708e-01,
          5.97558394e-02, 1.88210413e-01, 2.58926898e-01, 2.47514009e-01,
          1.04793094e-01, 7.11104795e-02, 1.02759197e-01, 2.47514009e-01,
          2.47514009e-01, 3.05785760e-02, 1.36184886e-01, 2.08799526e-01,
          2.47514009e-01, 3.22399884e-02, 1.53962811e-02, 1.13630323e-02,
          1.45158544e-01, 2.47514009e-01, 5.22113517e-02, 3.22325453e-02,
          1.74686015e-01, 2.47514009e-01, 9.82800573e-02, 3.37922275e-02,
          2.38655865e-01, 2.47514009e-01, 2.47514009e-01, 2.12937761e-02,
          1.39093250e-01, 2.47514009e-01, 2.47514009e-01, 2.63761580e-02,
          9.71175823e-03, 3.32834236e-02, 2.21738264e-01, 2.47514009e-01,
          1.74507815e-02, 3.51975895e-02, 1.92435369e-01, 1.70471191e-01,
          2.84349709e-03, 4.58293734e-03, 2.61374493e-03, 9.64876711e-02,
          2.85862893e-01, 1.35887593e-01, 7.89906159e-02, 1.79423004e-01,
          8.71036202e-03, 8.82470849e-05, 0., 0., 0., 0., 2.10492546e-03,
          7.01641897e-04, 6.02507824e-03, 3.36417139e-01, 1.43746873e-02,
          6.02011476e-03, 8.36664997e-03, 3.36417139e-01, 3.36417139e-01,
          7.84135312e-02, 2.73316316e-02, 3.00205171e-01, 3.36417139e-01,
          1.06309177e-02, 3.19695077e-03, 2.36308505e-03, 2.84229577e-01,
          2.93734521e-01, 2.04403862e-01, 5.49192280e-02, 2.39729628e-01,
          6.63662106e-02, 1.01042688e-01, 9.95532200e-02, 2.76842684e-01,
          8.24860111e-02, 5.43838507e-03, 1.53243951e-02, 1.80309583e-02,
          1.63801108e-02, 2.75075227e-01, 2.00231180e-01, 1.39189258e-01,
          4.05560166e-01, 4.05560166e-01, 1.91207409e-01, 7.64431879e-02,
          3.50303680e-01, 4.05560166e-01, 0., 0., 4.64711848e-05,
          1.02164159e-02, 5.10694459e-03, 0., 0., 0., 0., 2.30150676e-04,
          2.39751811e-04, 1.34541909e-03, 2.77058810e-01, 1.23490542e-01,
          1.76812918e-03, 0., 1.30856391e-02, 3.34008150e-02,
          1.58405021e-01, 2.70042736e-02, 1.24780284e-02, 3.13875705e-01,
          3.13875705e-01, 1.34160906e-01, 1.43792192e-02, 2.05035418e-01,
          3.13875705e-01, 3.13875705e-01, 6.02333341e-03, 1.79597095e-03,
          1.46345809e-01, 3.13875705e-01, 2.42270604e-01, 1.49734096e-05,
          6.39563575e-02, 3.13875705e-01, 2.64101308e-02, 2.49854842e-04,
          1.33882265e-03, 1.91615805e-01, 2.20175773e-01, 1.84403732e-02,
          0., 1.66704264e-02, 8.06198344e-02, 1.28320098e-01,
          1.35062740e-03, 6.74607407e-04, 7.21473843e-02, 3.13875705e-01,
          1.11846931e-01, 0., 9.21338331e-03, 9.74401087e-02,
          3.38546604e-01, 1.31574348e-02, 4.04769881e-03, 1.35412635e-02,
          3.38546604e-01, 3.38546604e-01, 2.73612067e-02, 5.43297920e-03,
          2.40604535e-01, 3.38546604e-01, 8.91793706e-03, 3.57149891e-03,
          2.63993931e-03, 3.38546604e-01, 3.38546604e-01, 1.59953415e-01,
          3.79259773e-02, 1.51739478e-01, 1.44949749e-01, 2.50780652e-03,
          7.49573810e-04, 6.29155664e-03, 3.38546604e-01, 1.69340372e-01,
          2.47708452e-03, 2.32358681e-04, 3.64256091e-02, 3.77249345e-02,
          1.01646536e-03, 6.61388680e-04, 4.88877704e-04, 1.53009072e-01,
          9.48719829e-02, 1.34062460e-02, 1.77539769e-03, 6.74888492e-03 ]
      - [ 2.59613156e-01, 1.91288471e-01, 9.52753052e-02, 6.57994449e-02,
          1.15048334e-01, 1.31828472e-01, 4.12078537e-02, 2.30260901e-02,
          1.29538998e-01, 2.78056353e-01, 1.05689473e-01, 2.46163085e-02,
          5.20039722e-02, 2.78056353e-01, 2.78056353e-01, 2.50073709e-02,
          2.52756793e-02, 2.78056353e-01, 8.84614214e-02, 1.30680114e-01,
          1.33953243e-01, 2.38164976e-01, 2.37554997e-01, 9.01548266e-02,
          4.51830104e-02, 3.57962847e-02, 1.97118357e-01, 1.90519497e-01,
          5.29933162e-02, 3.47192436e-02, 2.78056353e-01, 2.78056353e-01,
          1.52441546e-01, 2.72530355e-02, 5.14613576e-02, 2.78056353e-01,
          2.83639938e-01, 2.51158513e-02, 1.41341507e-03, 9.67670046e-03,
          2.83639938e-01, 2.40425065e-01, 0., 5.99329686e-03,
          2.20737204e-01, 2.83639938e-01, 1.59480441e-02, 1.04817061e-03,
          1.37017958e-03, 2.83639938e-01, 2.66829759e-01, 4.93547195e-05,
          1.38206407e-03, 9.70304385e-02, 2.00880736e-01, 4.06671548e-03,
          4.08536231e-04, 2.09579244e-01, 2.83639938e-01, 7.03091696e-02,
          0., 1.82366129e-02, 2.83639938e-01, 2.36399725e-01,
          3.80968209e-03, 4.41343011e-03, 1.36558369e-01, 2.83639938e-01,
          3.45408209e-02, 1.59208776e-06, 7.71934679e-03, 2.83639938e-01,
          3.41403961e-01, 1.90748647e-02, 4.17853968e-04, 4.31930134e-03,
          3.41403961e-01, 3.41403961e-01, 4.57489863e-02, 1.49416206e-02,
          9.44950879e-02, 1.06443174e-01, 3.05691618e-03, 3.76533244e-05,
          3.33927362e-03, 2.11237386e-01, 1.36929691e-01, 7.99920708e-02,
          2.42262129e-02, 4.14390340e-02, 3.41403961e-01, 2.41310913e-02,
          3.47952768e-02, 1.56359971e-01, 3.41403961e-01, 1.15641043e-01,
          2.29595639e-02, 5.72180972e-02, 3.41403961e-01, 1.01262510e-01,
          1.03100501e-02, 1.78401154e-02, 2.01331526e-02, 6.61622509e-02,
          1.20220132e-01, 6.47945553e-02, 9.00632888e-02, 3.41403961e-01,
          1.15133189e-01, 5.44009134e-02, 3.26248296e-02, 1.18271835e-01,
          1.20870776e-01, 2.52877884e-02, 8.63641966e-03, 8.82522482e-03,
          5.93207106e-02, 2.80067295e-01, 7.04271793e-02, 9.13849846e-03,
          2.61459678e-01, 2.80067295e-01, 1.27810150e-01, 6.24898495e-03,
          1.69598162e-02, 2.71470308e-01, 2.80067295e-01, 1.92402408e-01,
          1.03370748e-01, 2.20640555e-01, 6.18974306e-02, 1.45793945e-01,
          5.39146252e-02, 4.32548746e-02, 1.02058783e-01, 2.80067295e-01,
          1.73436955e-01, 4.65240777e-02, 2.36449897e-01, 2.80067295e-01,
          2.80067295e-01, 5.63216843e-02, 7.86983743e-02, 2.80067295e-01,
          2.83038318e-01, 1.81485359e-02, 9.18950973e-05, 1.65821612e-01,
          2.83038318e-01, 9.37663242e-02, 1.65535210e-04, 5.80846891e-03,
          2.83038318e-01, 2.83038318e-01, 1.03461426e-02, 9.66410246e-03,
          1.67469993e-01, 2.83038318e-01, 9.51044634e-02, 0.,
          5.51916054e-03, 2.83038318e-01, 2.83038318e-01, 2.42459662e-02,
          5.29280223e-04, 4.75937165e-02, 2.83038318e-01, 2.06519023e-01,
          3.36140534e-03, 1.96208004e-02, 2.43895113e-01, 2.24863932e-01,
          5.76913822e-03, 3.67542449e-03, 3.20832543e-02, 2.83038318e-01,
          1.16531231e-01, 7.71712348e-06, 6.34538429e-03, 1.77643448e-01,
          3.16056371e-01, 4.24301811e-02, 5.72639853e-02, 1.79360524e-01,
          3.16056371e-01, 3.16056371e-01, 3.41748334e-02, 5.67276143e-02,
          3.16056371e-01, 9.65528935e-02, 1.81274693e-02, 2.91124471e-02,
          2.79889870e-02, 1.82335898e-01, 2.99316198e-01, 9.54071954e-02,
          1.03449978e-01, 3.16056371e-01, 1.99394628e-01, 1.76010560e-02,
          2.15814393e-02, 4.21238169e-02, 3.16056371e-01, 2.70926625e-01,
          1.16563002e-02, 1.35847600e-02, 1.66265681e-01, 2.48361062e-02,
          7.54947029e-03, 1.08819939e-02, 8.71253200e-03, 1.34356037e-01,
          1.88876331e-01, 3.20204943e-02, 2.41093263e-02, 4.53752950e-02,
          1.40020683e-01, 1.30529135e-01, 1.34026915e-01, 3.24575722e-01,
          1.25700921e-01, 1.11130916e-01, 6.11522049e-02, 7.06382766e-02,
          1.79981723e-01, 2.80948818e-01, 8.97626728e-02, 6.89638704e-02,
          3.24575722e-01, 3.24575722e-01, 2.76011199e-01, 6.36992455e-02,
          1.54326051e-01, 3.24575722e-01, 5.60381915e-04, 3.35404300e-04,
          5.88344270e-03, 1.10887758e-01, 4.55915034e-02, 0.,
          5.12185907e-05, 4.82788635e-03, 2.00169012e-02, 2.16659401e-02,
          2.85082788e-04, 6.20698184e-03, 3.24575722e-01, 3.17588598e-01,
          4.10067732e-04, 4.51928754e-05, 2.17444338e-02, 1.83440223e-01,
          1.31608844e-01, 5.92715200e-03, 2.03056633e-03, 2.91550845e-01,
          2.91550845e-01, 9.18291286e-02, 3.74266738e-03, 6.13344833e-02,
          2.91550845e-01, 1.01002276e-01, 3.39595339e-04, 8.50401848e-05,
          2.20996097e-01, 2.91550845e-01, 3.61177400e-02, 3.76423215e-03,
          4.60001267e-02, 2.91550845e-01, 3.50424685e-02, 6.03889494e-05,
          8.34039354e-04, 2.63285160e-01, 2.91550845e-01, 2.98222783e-03,
          0., 2.16642804e-02, 2.48392254e-01, 7.09274635e-02,
          6.66974738e-05, 2.00092429e-04, 2.91550845e-01, 2.91550845e-01,
          2.54129581e-02, 8.92478507e-03, 3.93005908e-02, 2.91550845e-01,
          1.38461009e-01, 1.76389349e-05, 5.29168028e-05, 2.38900170e-01,
          3.59935224e-01, 8.85416493e-02, 5.84773533e-02, 1.17751785e-01,
          3.59935224e-01, 1.65184774e-02, 2.40516079e-06, 7.21548213e-06,
          2.38714255e-02, 5.41508459e-02, 4.11109366e-02, 5.01276068e-02,
          6.00894690e-02, 1.58642411e-01, 1.29011989e-01, 1.00310826e-04,
          3.00932472e-04, 3.59935224e-01, 3.59935224e-01, 1.95563242e-01,
          1.35886356e-01, 1.74763829e-01, 3.59935224e-01, 1.79902259e-02,
          2.32498878e-05, 6.97496653e-05, 7.46288374e-02, 1.42312244e-01,
          1.18482232e-01, 1.15721747e-01, 1.00888960e-01, 2.07028672e-01 ]
      - [ 2.31626362e-01, 8.84514153e-02, 8.04056879e-03, 4.75980761e-03,
          4.89991456e-02, 6.29693642e-02, 1.06908176e-02, 3.28489277e-03,
          3.23663168e-02, 3.05068761e-01, 7.78720528e-02, 1.20774377e-03,
          9.83322971e-04, 1.93400711e-01, 2.14362025e-01, 5.74218109e-03,
          1.48390827e-03, 7.56543577e-02, 3.05068761e-01, 2.14808270e-01,
          6.93050772e-02, 2.13490516e-01, 2.98444688e-01, 1.67196333e-01,
          5.73850349e-02, 2.76657492e-02, 1.89221337e-01, 3.05068761e-01,
          9.19523612e-02, 8.30332004e-03, 1.07005939e-01, 3.05068761e-01,
          3.05068761e-01, 2.68532727e-02, 1.27631510e-02, 3.05068761e-01,
          2.78890342e-01, 5.55129237e-02, 2.89889344e-04, 0.,
          2.28793472e-01, 2.46991262e-01, 8.34421429e-04, 5.46702940e-05,
          6.07393496e-02, 2.78890342e-01, 5.48859611e-02, 1.51846791e-04,
          3.48495552e-04, 2.78890342e-01, 2.78890342e-01, 6.67675486e-05,
          2.60785637e-05, 4.91782576e-02, 2.78890342e-01, 2.94706337e-02,
          1.60075061e-03, 4.09451649e-02, 2.78890342e-01, 2.44985491e-01,
          9.47644177e-04, 1.85467978e-03, 2.78890342e-01, 2.78890342e-01,
          1.99388023e-02, 1.51803726e-02, 2.91443504e-02, 2.78890342e-01,
          1.72641799e-01, 1.90806808e-04, 2.90144538e-03, 2.78890342e-01,
          2.93392301e-01, 1.15329780e-01, 2.91441567e-03, 2.02476722e-03,
          2.93392301e-01, 2.93392301e-01, 2.16793176e-03, 1.24984293e-03,
          6.45355582e-02, 1.73958063e-01, 8.45833570e-02, 5.08687366e-03,
          1.24490366e-03, 2.89288908e-01, 2.93392301e-01, 4.83426191e-02,
          2.09591407e-02, 8.50177109e-02, 2.93392301e-01, 1.36498995e-02,
          1.97509527e-02, 1.52339600e-02, 2.93392301e-01, 1.69357628e-01,
          1.02067762e-03, 3.95040726e-03, 2.93392301e-01, 2.71768898e-01,
          1.16694398e-04, 9.76520823e-05, 1.24208687e-04, 1.95065305e-01,
          1.16994217e-01, 4.27592434e-02, 5.36999628e-02, 2.93392301e-01,
          2.36554161e-01, 1.26016513e-01, 4.99536246e-02, 1.74935147e-01,
          2.61126339e-01, 8.23056772e-02, 3.24314386e-02, 1.89996585e-02,
          1.17409572e-01, 2.85669774e-01, 5.74985072e-02, 8.73279665e-03,
          1.11727029e-01, 2.85669774e-01, 1.80607647e-01, 1.80208087e-02,
          1.20204324e-02, 2.85669774e-01, 1.85737580e-01, 1.52885854e-01,
          8.68182182e-02, 2.06265360e-01, 1.60638794e-01, 9.47597995e-02,
          4.20608595e-02, 3.98523286e-02, 1.28576443e-01, 2.85669774e-01,
          7.66100809e-02, 2.79985145e-02, 2.18847767e-01, 2.85669774e-01,
          2.05820113e-01, 3.19467969e-02, 5.38067482e-02, 2.85669774e-01,
          2.90564448e-01, 1.51433665e-02, 2.51820963e-03, 6.32705241e-02,
          2.90564448e-01, 1.42499134e-01, 3.61778599e-04, 2.31377175e-03,
          2.90564448e-01, 2.90564448e-01, 2.76879761e-02, 2.81115677e-02,
          5.07288165e-02, 2.90564448e-01, 1.40229285e-01, 5.79682062e-04,
          3.45265935e-03, 2.90564448e-01, 2.50684947e-01, 9.49838851e-03,
          1.46000041e-03, 9.78222489e-02, 2.90564448e-01, 1.43996119e-01,
          3.00434331e-04, 2.06947066e-02, 2.90564448e-01, 1.26443565e-01,
          1.08810030e-02, 7.99154676e-03, 4.83115390e-02, 2.90564448e-01,
          1.11748055e-01, 5.07333432e-04, 1.25268297e-02, 2.53127038e-01,
          3.08430344e-01, 2.65101958e-02, 3.97363491e-02, 3.13287899e-02,
          3.08430344e-01, 2.39928439e-01, 2.06849957e-03, 5.45011647e-03,
          3.08430344e-01, 3.08430344e-01, 1.14053968e-04, 2.01502189e-04,
          2.71225028e-04, 3.08430344e-01, 2.66481847e-01, 7.57640079e-02,
          7.57748783e-02, 3.08430344e-01, 8.82811472e-02, 9.71094146e-03,
          1.10951737e-02, 2.27000676e-02, 3.08430344e-01, 1.41649678e-01,
          7.53575936e-04, 1.12802079e-02, 2.58895814e-01, 3.94693539e-02,
          4.62346325e-05, 5.64683214e-05, 2.07786550e-04, 2.62457430e-01,
          1.08787589e-01, 1.74515303e-02, 1.30966119e-02, 9.56932902e-02,
          9.47560146e-02, 1.21452764e-01, 1.32703677e-01, 3.89082819e-01,
          3.29786688e-01, 8.02732185e-02, 5.13497181e-02, 6.32410496e-02,
          2.38739178e-01, 1.94880977e-01, 5.21356091e-02, 4.75483052e-02,
          3.89082819e-01, 3.89082819e-01, 1.43104330e-01, 3.89075987e-02,
          1.08135864e-01, 3.89082819e-01, 1.82185657e-04, 6.59248617e-05,
          1.67657694e-04, 3.70954461e-02, 4.24368940e-02, 0., 0.,
          8.51548975e-05, 1.15133775e-03, 4.65140538e-03, 1.78232105e-04,
          7.11029046e-04, 1.75421506e-01, 2.40169898e-01, 7.80604460e-05,
          2.33446985e-06, 2.91035371e-03, 4.57053445e-02, 1.04976833e-01,
          7.49114901e-04, 2.36520474e-03, 3.15673411e-01, 3.15673411e-01,
          3.62859592e-02, 1.84811070e-04, 4.29586843e-02, 3.15673411e-01,
          1.16968699e-01, 5.07839490e-04, 1.50974351e-03, 3.15673411e-01,
          3.15673411e-01, 8.40104651e-03, 1.76709538e-04, 4.57583256e-02,
          3.15673411e-01, 1.35055296e-02, 7.93503204e-05, 5.74801234e-04,
          1.69642434e-01, 2.36682028e-01, 2.38079025e-04, 5.54503958e-06,
          5.92147512e-03, 1.01728849e-01, 3.84199768e-02, 4.01151541e-04,
          8.40303721e-04, 2.90997177e-01, 3.15673411e-01, 3.08811752e-04,
          1.85151457e-05, 1.66927632e-02, 2.95739979e-01, 1.01056196e-01,
          7.68192287e-04, 4.45310143e-04, 2.57276267e-01, 3.04373652e-01,
          5.81367349e-04, 1.74316723e-04, 3.94179486e-02, 3.04373652e-01,
          6.25061765e-02, 3.74059106e-04, 2.52621649e-05, 1.51028946e-01,
          1.66017696e-01, 1.85535029e-02, 1.90459471e-02, 6.14088140e-02,
          3.04373652e-01, 6.17539883e-02, 8.01758200e-04, 3.59404774e-04,
          3.04373652e-01, 3.04373652e-01, 5.17238921e-04, 8.33620797e-05,
          2.72136368e-02, 3.04373652e-01, 5.52039929e-02, 5.60885353e-04,
          2.44200928e-04, 3.04373652e-01, 3.04373652e-01, 7.97533020e-02,
          5.32851629e-02, 9.82374325e-02, 3.04373652e-01 ]
      - [ 1.69129781e-02, 1.15321297e-02, 9.81472656e-02, 1.27274737e-01,
          1.00975567e-02, 5.07868780e-03, 3.00432346e-03, 3.19199339e-02,
          2.91774198e-02, 4.85709794e-02, 2.01608222e-02, 2.85621375e-01,
          3.23684663e-01, 2.30334103e-01, 2.74068676e-02, 1.24076288e-02,
          3.23684663e-01, 3.23684663e-01, 2.41974041e-01, 1.40688136e-01,
          6.14360981e-02, 5.99459223e-02, 1.16667442e-01, 4.73584868e-02,
          3.69628407e-02, 2.96791121e-02, 2.33891681e-01, 2.26724818e-01,
          3.24609578e-02, 6.80705085e-02, 3.23684663e-01, 2.65506476e-01,
          2.75507718e-02, 1.73364542e-02, 1.38497055e-01, 3.23684663e-01,
          2.45600753e-02, 3.28933937e-03, 7.33122528e-02, 2.74862826e-01,
          2.07786292e-01, 7.00687105e-03, 5.09375054e-03, 2.74862826e-01,
          2.74862826e-01, 3.78566533e-02, 1.37608394e-03, 1.43592758e-02,
          2.74862826e-01, 2.64219731e-01, 1.00999395e-03, 3.11394059e-03,
          1.67028785e-01, 2.74862826e-01, 4.44033518e-02, 3.93563043e-03,
          7.47373775e-02, 2.74862826e-01, 1.10614702e-01, 2.07172730e-03,
          4.64784214e-03, 2.23184541e-01, 2.74862826e-01, 2.50307042e-02,
          6.24826876e-03, 9.09460187e-02, 2.74862826e-01, 1.20270982e-01,
          2.03180499e-03, 1.02214348e-02, 2.74862826e-01, 2.74862826e-01,
          9.59122032e-02, 1.20561730e-04, 3.45569104e-03, 2.85693020e-01,
          2.85693020e-01, 8.87345057e-03, 1.78069975e-02, 1.58754289e-01,
          2.85693020e-01, 8.88748392e-02, 0., 4.38205106e-03,
          2.85693020e-01, 1.54904991e-01, 3.47863659e-02, 8.59698132e-02,
          1.96842015e-01, 2.85693020e-01, 4.40984666e-02, 5.31851826e-03,
          5.77622764e-02, 2.85693020e-01, 2.35200629e-01, 1.23494854e-02,
          2.98188943e-02, 2.85693020e-01, 2.85693020e-01, 4.23781127e-02,
          3.23533022e-04, 6.86208904e-03, 2.76241809e-01, 1.69055343e-01,
          4.97220419e-02, 9.25971121e-02, 1.52354434e-01, 1.65677071e-01,
          1.71225697e-01, 1.53432772e-01, 1.50048971e-01, 2.36257985e-01,
          1.72149107e-01, 7.09810629e-02, 7.32075796e-02, 1.67334720e-01,
          2.17084765e-01, 1.70123816e-01, 3.23973224e-02, 3.65075991e-02,
          2.72331536e-01, 2.72331536e-01, 4.09311391e-02, 3.23744640e-02,
          1.49791524e-01, 2.72331536e-01, 1.90180261e-02, 3.90544124e-02,
          1.60024196e-01, 2.72331536e-01, 7.04074651e-02, 2.77502593e-02,
          4.03256863e-02, 2.65357703e-01, 1.30427495e-01, 2.57118978e-02,
          7.96512421e-03, 1.15154125e-01, 2.72331536e-01, 1.95197240e-01,
          1.74685847e-02, 2.49677263e-02, 2.72331536e-01, 2.72331536e-01,
          9.15659592e-02, 1.77170883e-03, 3.78016122e-02, 2.74951011e-01,
          2.74951011e-01, 1.17786438e-03, 1.53278990e-03, 9.48348418e-02,
          2.74951011e-01, 7.52470568e-02, 1.39860092e-02, 1.25839457e-01,
          2.74951011e-01, 2.74951011e-01, 1.25329513e-02, 1.84626132e-02,
          2.74951011e-01, 2.74951011e-01, 2.40543336e-02, 1.15675117e-04,
          2.39261612e-02, 2.57658720e-01, 2.33318314e-01, 9.13136522e-04,
          3.13840620e-03, 1.81450561e-01, 2.36871317e-01, 3.91687155e-02,
          8.31155758e-03, 3.14961970e-02, 2.68732578e-01, 2.74951011e-01,
          1.82875935e-02, 1.30738346e-02, 9.63020399e-02, 2.36328959e-01,
          9.37468633e-02, 3.57588045e-02, 1.85218543e-01, 3.23911726e-01,
          3.23911726e-01, 8.11232626e-02, 1.11335270e-01, 3.23911726e-01,
          3.23911726e-01, 4.04404802e-03, 2.62104161e-03, 8.41488130e-03,
          4.74713929e-02, 7.64338821e-02, 4.33709882e-02, 6.26776442e-02,
          1.36129797e-01, 4.90903072e-02, 6.46030158e-02, 2.48824321e-02,
          7.52806067e-02, 3.23911726e-01, 3.23911726e-01, 1.21779472e-01,
          1.10986009e-01, 3.23911726e-01, 3.23911726e-01, 3.15139606e-03,
          2.00705393e-03, 4.98267030e-03, 8.51683132e-03, 7.52187222e-02,
          4.62418236e-02, 5.60757443e-02, 9.77702290e-02, 3.00693419e-02,
          3.67710670e-03, 9.45691310e-04, 1.07066348e-01, 3.86966467e-01,
          6.52707880e-03, 2.06590444e-03, 4.02762694e-03, 1.76492363e-01,
          9.11546946e-02, 8.09468050e-03, 3.80384410e-03, 2.96227813e-01,
          3.86966467e-01, 1.18927518e-02, 3.01939854e-03, 1.48226107e-02,
          3.86966467e-01, 3.86966467e-01, 0., 5.88734511e-05,
          5.83155360e-03, 2.74652336e-02, 1.49015264e-04, 0.,
          1.01350372e-06, 2.79764924e-03, 1.60617649e-03, 6.49697322e-05,
          4.12103161e-03, 1.45538852e-01, 3.86966467e-01, 1.35190776e-02,
          0., 2.98095215e-03, 2.63108134e-01, 1.29627809e-01,
          1.83378137e-03, 3.28072300e-03, 1.22108005e-01, 3.19416851e-01,
          1.78972185e-02, 4.08066437e-04, 7.52223376e-03, 3.19416851e-01,
          2.79883206e-01, 8.06271797e-04, 8.40908033e-04, 1.95031222e-02,
          1.10360071e-01, 6.57317713e-02, 5.18000172e-03, 5.39715542e-03,
          1.56641841e-01, 7.44220465e-02, 1.10257324e-03, 5.59267122e-03,
          2.05175310e-01, 3.19416851e-01, 3.50225605e-02, 0.,
          7.47429393e-03, 3.19416851e-01, 2.71762013e-01, 2.88095069e-03,
          3.97093175e-03, 1.53161004e-01, 3.19416851e-01, 3.22289057e-02,
          0., 1.34885293e-02, 3.19416851e-01, 3.19416851e-01,
          4.11161548e-03, 0., 9.10518516e-04, 2.21931785e-01,
          4.52787131e-01, 1.23023063e-01, 8.62805471e-02, 1.01787917e-01,
          3.27237584e-02, 3.28482944e-04, 0., 1.45636977e-06,
          7.05890404e-03, 8.81541818e-02, 4.71672788e-02, 4.39691730e-02,
          2.05416437e-02, 2.82445661e-04, 1.29929716e-02, 1.61840189e-02,
          2.53873140e-01, 4.52787131e-01, 5.03140464e-02, 0.,
          9.56536606e-02, 4.52787131e-01, 4.52787131e-01, 6.78566692e-04,
          5.42774913e-04, 1.62832474e-03, 1.28953753e-03, 2.65902810e-04,
          0., 1.69511009e-02, 5.18848896e-02, 1.34660173e-02 ]
      - [ 9.75237787e-02, 7.55351260e-02, 1.90373953e-03, 4.16831201e-04,
          4.17582551e-03, 3.26782763e-02, 6.63961377e-03, 2.79425085e-03,
          7.54504837e-03, 3.08190912e-01, 2.54965216e-01, 1.63615425e-03,
          3.19162587e-04, 6.23396933e-02, 3.08190912e-01, 1.80413425e-02,
          5.76470280e-03, 5.05054072e-02, 2.55974084e-01, 2.85381913e-01,
          6.16206788e-02, 7.67529234e-02, 2.38100052e-01, 1.09589435e-01,
          3.64508666e-02, 1.94028933e-02, 6.17567413e-02, 3.08190912e-01,
          3.08190912e-01, 2.89812665e-02, 8.53530318e-02, 3.08190912e-01,
          3.08190912e-01, 6.29219562e-02, 2.95014903e-02, 3.08190912e-01,
          2.73930460e-01, 1.97689503e-01, 9.43072548e-04, 1.11603171e-04,
          8.80991817e-02, 2.73930460e-01, 1.31848194e-02, 1.30260515e-03,
          4.95822355e-02, 2.73930460e-01, 1.98602065e-01, 1.24287661e-02,
          5.56342420e-04, 1.12217911e-01, 2.73930460e-01, 2.83391587e-02,
          8.09369795e-03, 6.97047263e-02, 2.73930460e-01, 1.11141950e-01,
          1.62568630e-03, 2.47147493e-02, 2.73930460e-01, 2.73930460e-01,
          1.44375972e-02, 5.18084038e-03, 2.34537795e-01, 2.73930460e-01,
          6.81691244e-02, 1.56106530e-02, 5.15777804e-02, 2.73930460e-01,
          2.50257671e-01, 2.07186285e-02, 2.58830860e-02, 2.73930460e-01,
          3.05712134e-01, 2.37489611e-01, 3.25288810e-02, 1.94358092e-03,
          1.54462978e-01, 3.23192567e-01, 1.15364678e-01, 5.70921823e-02,
          1.69036046e-01, 9.22333449e-03, 1.58367050e-03, 4.39858093e-04,
          2.74367572e-04, 7.52821146e-03, 4.79205139e-02, 3.15340459e-02,
          1.86328217e-02, 2.87191998e-02, 3.23192567e-01, 1.61955148e-01,
          1.03036724e-01, 1.91039950e-01, 3.23192567e-01, 3.23192567e-01,
          2.02175185e-01, 2.27003187e-01, 3.23192567e-01, 2.92704441e-02,
          2.54103355e-02, 2.87720188e-02, 3.19310538e-02, 1.82093717e-02,
          1.27223417e-01, 1.27689227e-01, 1.08854666e-01, 1.90273270e-01,
          1.34571105e-01, 1.31748527e-01, 4.84404676e-02, 7.46935531e-02,
          2.48330310e-01, 4.64035980e-02, 1.75025314e-02, 1.07679730e-02,
          4.10359912e-02, 3.02848011e-01, 1.56937420e-01, 2.19821725e-02,
          8.58868435e-02, 3.02848011e-01, 2.59170294e-01, 2.88092140e-02,
          1.56058120e-02, 1.91690594e-01, 2.62108952e-01, 1.19489327e-01,
          6.95169643e-02, 1.21257715e-01, 1.34576917e-01, 4.81310114e-02,
          2.74618082e-02, 2.81958710e-02, 6.55706972e-02, 3.02848011e-01,
          1.90364555e-01, 3.65379117e-02, 1.69912443e-01, 3.02848011e-01,
          3.02848011e-01, 4.89750020e-02, 4.73440774e-02, 3.02848011e-01,
          2.65725404e-01, 7.19377920e-02, 9.46954242e-04, 2.47302856e-02,
          2.65725404e-01, 2.29226962e-01, 6.72459835e-03, 2.70278752e-03,
          1.28182605e-01, 2.65725404e-01, 1.20520048e-01, 1.74112506e-02,
          4.55008000e-02, 2.65725404e-01, 2.65725404e-01, 2.33536642e-02,
          1.58690177e-02, 1.40751705e-01, 2.65725404e-01, 9.04934928e-02,
          1.75693742e-04, 5.07970192e-02, 2.65725404e-01, 2.65725404e-01,
          1.22105321e-02, 6.84864307e-03, 2.55405307e-01, 2.55794883e-01,
          6.32254332e-02, 1.51250733e-03, 4.12793159e-02, 2.33105421e-01,
          2.65725404e-01, 7.19438773e-03, 2.91572418e-03, 2.18635842e-01,
          3.18317622e-01, 2.60972351e-01, 1.06309406e-01, 1.54234871e-01,
          3.18317622e-01, 3.18317622e-01, 2.08503306e-01, 1.40261874e-01,
          3.18317622e-01, 2.97266543e-02, 3.03786900e-02, 2.95745246e-02,
          2.63486616e-02, 2.25406624e-02, 2.10895568e-01, 1.25554517e-01,
          7.30131865e-02, 9.87387821e-02, 2.39929393e-01, 7.72217885e-02,
          9.26385447e-03, 6.52016774e-02, 2.35798240e-01, 3.18317622e-01,
          2.61123925e-02, 2.18568761e-02, 3.18317622e-01, 1.67379510e-02,
          4.28981939e-03, 2.54749064e-03, 7.66331842e-03, 1.26271164e-02,
          5.85653037e-02, 1.20554194e-02, 1.81355588e-02, 1.19416088e-01,
          2.39517063e-01, 1.36454880e-01, 1.17272176e-01, 3.04022372e-01,
          2.87038565e-01, 5.73797449e-02, 3.94461080e-02, 4.46570143e-02,
          9.87230465e-02, 3.40970725e-01, 1.43745035e-01, 6.24427311e-02,
          3.40970725e-01, 3.40970725e-01, 3.19550514e-01, 6.41789883e-02,
          7.62304589e-02, 3.40970725e-01, 2.73174327e-03, 4.66411730e-04,
          4.70272871e-03, 5.11232503e-02, 5.80491461e-02, 8.24472576e-04,
          3.87719367e-04, 1.17855193e-03, 5.32957166e-03, 2.30650324e-02,
          2.09429214e-04, 2.68815272e-03, 1.24668881e-01, 2.96260834e-01,
          4.02396685e-03, 5.36989770e-04, 2.73143337e-03, 6.22439869e-02,
          3.14907074e-01, 3.16747166e-02, 4.87642974e-04, 2.29353026e-01,
          3.16384047e-01, 1.89227924e-01, 1.07998373e-02, 1.19561367e-02,
          3.16384047e-01, 1.82463005e-01, 5.39928628e-03, 2.18827074e-04,
          2.96873838e-01, 3.16384047e-01, 5.94343022e-02, 1.21679436e-03,
          1.31982705e-02, 3.16384047e-01, 2.73475368e-02, 0.,
          8.96621787e-05, 9.31974128e-02, 2.70133376e-01, 3.18865129e-03,
          5.99627929e-05, 7.92118837e-04, 9.13231671e-02, 3.74557227e-02,
          0., 4.15907416e-04, 1.98812723e-01, 3.16384047e-01,
          1.72385911e-03, 4.85108330e-06, 5.61293960e-03, 2.24989250e-01,
          1.24068074e-01, 0., 1.95734017e-03, 3.14386457e-01,
          3.14386457e-01, 3.32445875e-02, 2.50828173e-02, 9.20833349e-02,
          3.14386457e-01, 3.15524302e-02, 0., 1.77025015e-03,
          1.65541112e-01, 1.60063237e-01, 4.94661592e-02, 6.92820325e-02,
          1.19876243e-01, 3.14386457e-01, 4.22780812e-02, 0.,
          3.65973241e-03, 3.14386457e-01, 3.14386457e-01, 3.98553833e-02,
          3.25395428e-02, 7.22729638e-02, 3.14386457e-01, 1.62600800e-02,
          0., 3.29229189e-03, 2.10126713e-01, 2.30664119e-01,
          7.92160556e-02, 8.96375850e-02, 1.11658826e-01, 2.63918251e-01 ]
      - [ 1.98044851e-01, 7.21414536e-02, 5.84942326e-02, 7.63546452e-02,
          9.60174277e-02, 2.55463757e-02, 1.27347931e-02, 3.89648415e-02,
          1.06961228e-01, 2.98275441e-01, 3.81790139e-02, 2.12103352e-02,
          6.69154003e-02, 2.98275441e-01, 8.22154209e-02, 1.21741155e-02,
          4.36149649e-02, 2.98275441e-01, 2.08780438e-01, 8.81741568e-02,
          1.02664940e-01, 2.98275441e-01, 2.02632219e-01, 3.37766930e-02,
          1.87971443e-02, 8.79141465e-02, 2.09589422e-01, 2.98275441e-01,
          4.18890826e-02, 4.33652140e-02, 2.98275441e-01, 2.98275441e-01,
          1.00062750e-01, 1.65894423e-02, 1.52872190e-01, 2.98275441e-01,
          2.84534991e-01, 8.44926201e-03, 1.42099161e-04, 1.56471115e-02,
          2.84534991e-01, 8.68897364e-02, 2.43937992e-03, 6.10567909e-03,
          2.44408622e-01, 2.84534991e-01, 4.28090291e-03, 0.,
          1.51011888e-02, 2.84534991e-01, 8.63124877e-02, 7.99108180e-04,
          7.51989137e-04, 2.41523787e-01, 2.71427006e-01, 6.40287763e-03,
          6.09799940e-03, 2.49240622e-01, 2.84534991e-01, 9.09612775e-02,
          2.36794772e-03, 8.43853056e-02, 2.84534991e-01, 2.12754905e-01,
          5.18057169e-03, 8.87841173e-03, 9.73186716e-02, 2.84534991e-01,
          7.72652701e-02, 1.07684371e-03, 6.09508418e-02, 2.84534991e-01,
          2.95593619e-01, 5.72349466e-02, 2.19868217e-03, 4.15189043e-02,
          2.95593619e-01, 1.25325114e-01, 1.02122957e-02, 2.50955727e-02,
          2.95593619e-01, 2.95593619e-01, 1.21157028e-01, 4.31812182e-03,
          2.41388883e-02, 2.95593619e-01, 1.96971506e-01, 9.41922069e-02,
          1.57502249e-01, 2.78534651e-01, 2.31965363e-01, 1.90361980e-02,
          7.33881537e-03, 5.44096865e-02, 2.95593619e-01, 9.55191553e-02,
          5.30417450e-03, 6.17760122e-02, 2.95593619e-01, 9.80038792e-02,
          3.36811207e-02, 8.97949561e-04, 1.87529437e-02, 2.95593619e-01,
          1.29895553e-01, 4.30196673e-02, 5.49142770e-02, 9.09612998e-02,
          2.25987673e-01, 8.50775242e-02, 5.58608882e-02, 1.68359712e-01,
          1.79309055e-01, 6.72227740e-02, 2.59693805e-02, 5.11508994e-02,
          1.54445454e-01, 2.68334091e-01, 1.96972955e-02, 1.32825831e-02,
          2.68667787e-01, 2.68667787e-01, 5.31391278e-02, 9.73017141e-03,
          7.03004748e-02, 2.68667787e-01, 1.69086367e-01, 8.51329416e-02,
          1.08096711e-01, 2.68667787e-01, 1.93707228e-01, 8.76243636e-02,
          4.64034192e-02, 1.62182882e-01, 2.57383049e-01, 1.77787393e-01,
          1.60531793e-02, 1.82076003e-02, 2.68667787e-01, 2.68667787e-01,
          5.70774004e-02, 1.63184684e-02, 1.86745226e-01, 2.68667787e-01,
          2.20390499e-01, 2.45316722e-03, 1.09875454e-02, 2.98205823e-01,
          2.98205823e-01, 2.62791719e-02, 9.00464598e-04, 7.06981197e-02,
          2.98205823e-01, 1.34270698e-01, 1.19845355e-02, 3.32114883e-02,
          2.28431463e-01, 2.98205823e-01, 2.80686095e-02, 7.90163595e-03,
          1.23960786e-01, 2.98205823e-01, 1.41651332e-01, 1.95128459e-03,
          6.21279469e-03, 1.67876333e-01, 2.98205823e-01, 2.49053650e-02,
          1.56372588e-03, 7.63365552e-02, 2.98205823e-01, 8.44584927e-02,
          8.97947792e-03, 2.14140005e-02, 1.29031673e-01, 2.98205823e-01,
          3.40683497e-02, 8.98375362e-03, 5.76496273e-02, 2.44783536e-01,
          1.07958227e-01, 2.69809701e-02, 5.79592511e-02, 2.08838001e-01,
          3.75392377e-01, 8.08722898e-02, 9.73691642e-02, 3.75392377e-01,
          3.75392377e-01, 2.24284525e-03, 0., 0., 1.08471997e-02,
          9.31521878e-02, 2.45015789e-02, 5.52367829e-02, 9.68225002e-02,
          1.24269620e-01, 6.30830899e-02, 2.03952249e-02, 3.91275212e-02,
          1.82303026e-01, 3.75392377e-01, 1.16776325e-01, 1.18134990e-01,
          2.71835983e-01, 3.75392377e-01, 1.01600075e-03, 0., 0.,
          1.53981438e-02, 1.29426211e-01, 3.73869017e-02, 6.83685094e-02,
          8.84530991e-02, 8.64481702e-02, 1.83269754e-02, 1.90862529e-02,
          8.84423330e-02, 3.58534336e-01, 1.64971054e-01, 3.19152847e-02,
          2.56051384e-02, 1.95516482e-01, 2.91936487e-01, 2.94143613e-02,
          3.24885128e-03, 3.54060270e-02, 3.58534336e-01, 3.58534336e-01,
          2.03471426e-02, 1.25983907e-02, 3.58534336e-01, 3.58534336e-01,
          5.13591804e-04, 9.84360813e-05, 5.85977803e-04, 7.22120479e-02,
          2.23273691e-02, 2.27225410e-05, 1.47173254e-04, 5.54798311e-03,
          9.09619965e-03, 3.78860696e-03, 4.87334881e-04, 1.02404216e-02,
          3.58534336e-01, 1.10238940e-01, 2.57522133e-05, 4.74079017e-04,
          1.17647216e-01, 1.72129929e-01, 1.73934866e-02, 5.85909525e-04,
          1.35204578e-02, 3.07262510e-01, 1.85690284e-01, 6.03785040e-03,
          1.89318182e-03, 3.04355919e-01, 3.07262510e-01, 1.02438526e-02,
          1.12300979e-04, 7.45748635e-03, 1.67118460e-01, 1.34736866e-01,
          8.48900806e-03, 2.33214139e-03, 1.57566041e-01, 2.31771708e-01,
          8.60399567e-03, 7.07817264e-04, 2.18583345e-02, 3.07262510e-01,
          1.19943060e-01, 8.81829765e-04, 4.42818040e-04, 2.23323137e-01,
          3.07262510e-01, 1.92501619e-02, 6.23255211e-04, 3.45975570e-02,
          3.07262510e-01, 1.30976826e-01, 2.55213841e-03, 3.28859710e-03,
          3.07262510e-01, 3.07262510e-01, 1.06004570e-02, 5.30936013e-05,
          4.45595384e-03, 8.10239315e-02, 2.61635393e-01, 2.96637677e-02,
          2.49209739e-02, 1.25919789e-01, 1.74303547e-01, 3.73324903e-04,
          0., 0., 3.74044036e-03, 3.49135026e-02, 9.55534074e-03,
          1.40723018e-02, 7.66659342e-03, 2.50934972e-03, 6.08417951e-02,
          2.99569219e-04, 6.78745657e-02, 4.61622089e-01, 2.18791857e-01,
          2.51176991e-02, 8.14653784e-02, 4.61622089e-01, 4.61622089e-01,
          1.32673159e-02, 0., 1.32430661e-02, 1.65206343e-01,
          3.34815532e-02, 1.98010840e-02, 7.68535957e-02, 2.56343424e-01,
          2.59626389e-01 ]
      - [ 6.33511916e-02, 6.40203804e-02, 4.50552218e-02, 5.18138185e-02,
          7.09741842e-03, 7.16832792e-03, 1.11606875e-02, 4.81407763e-03,
          7.00932881e-03, 2.99802363e-01, 2.86580175e-01, 9.75212008e-02,
          2.44993657e-01, 2.11814791e-01, 2.99802363e-01, 6.49811253e-02,
          6.74859881e-02, 2.39439905e-01, 4.91726995e-02, 5.95339648e-02,
          6.18115924e-02, 1.14474148e-01, 1.43114375e-02, 7.44434725e-03,
          1.40991285e-02, 7.25748157e-03, 9.66829248e-03, 2.99802363e-01,
          2.12829858e-01, 1.42163202e-01, 2.99802363e-01, 2.99802363e-01,
          2.68538296e-01, 8.03837851e-02, 1.19925492e-01, 2.99802363e-01,
          2.62543201e-01, 1.16944320e-01, 1.15237124e-02, 5.99273816e-02,
          1.88713595e-01, 2.62543201e-01, 1.40332775e-02, 2.56263539e-02,
          1.69804499e-01, 2.62543201e-01, 1.01703890e-01, 3.15636024e-03,
          6.12733653e-03, 2.28470787e-01, 2.62543201e-01, 1.46487390e-03,
          6.51412224e-03, 9.38699469e-02, 2.62543201e-01, 5.20204119e-02,
          1.76778827e-02, 2.62543201e-01, 2.62543201e-01, 1.88378751e-01,
          1.68234166e-02, 6.63988888e-02, 2.62543201e-01, 1.97016835e-01,
          1.52829466e-02, 1.92228630e-02, 2.08910778e-01, 2.62543201e-01,
          1.28534123e-01, 1.58815943e-02, 1.04441024e-01, 2.62543201e-01,
          3.36291701e-01, 2.23711446e-01, 5.97372418e-03, 1.08737184e-03,
          3.36291701e-01, 3.36291701e-01, 3.42455991e-02, 1.57033075e-02,
          8.50172043e-02, 1.45033211e-01, 5.94777837e-02, 3.99507262e-04,
          0., 2.08423078e-01, 3.21815133e-01, 7.09129199e-02,
          2.68144049e-02, 3.58933806e-02, 1.92507491e-01, 1.99502725e-02,
          6.37620017e-02, 1.70656621e-01, 3.02182913e-01, 1.81032524e-01,
          1.17023677e-01, 3.06514949e-01, 3.36291701e-01, 2.66035507e-03,
          4.47266473e-04, 2.38055363e-03, 2.82000896e-04, 7.67668337e-03,
          1.78793985e-02, 3.60441990e-02, 3.87428552e-02, 3.68177630e-02,
          9.99745056e-02, 5.89097179e-02, 4.29673754e-02, 5.27605563e-02,
          1.18686305e-02, 1.89914759e-02, 1.37981344e-02, 1.35148307e-02,
          1.58481561e-02, 2.90996611e-01, 1.13870576e-01, 5.76947257e-02,
          2.70784944e-01, 2.88663894e-01, 1.95267290e-01, 3.75061929e-02,
          6.30885288e-02, 1.95008710e-01, 1.30504951e-01, 1.05864838e-01,
          1.04710236e-01, 2.13681102e-01, 5.24360538e-02, 3.74120511e-02,
          3.21823433e-02, 4.73977029e-02, 4.54533547e-02, 2.90996611e-01,
          1.68988615e-01, 1.13959238e-01, 2.90996611e-01, 2.90996611e-01,
          2.90996611e-01, 7.45649636e-02, 2.71738678e-01, 2.90996611e-01,
          2.51687407e-01, 2.94855312e-02, 6.17787056e-03, 2.13402733e-01,
          2.51687407e-01, 1.74019396e-01, 6.70718541e-03, 3.32069583e-02,
          2.22282961e-01, 2.51687407e-01, 1.96123887e-02, 3.31132896e-02,
          2.09263474e-01, 2.51687407e-01, 1.91370547e-01, 3.27856354e-02,
          9.71610770e-02, 2.51687407e-01, 2.51687407e-01, 2.96141300e-02,
          6.51182001e-03, 2.51687407e-01, 2.51687407e-01, 2.00407326e-01,
          1.18921129e-02, 1.51394084e-01, 2.51687407e-01, 1.44100532e-01,
          8.26642942e-03, 6.98176259e-03, 8.14216807e-02, 2.47205585e-01,
          1.35532916e-01, 1.00632627e-02, 7.21915364e-02, 1.76687971e-01,
          3.23936850e-01, 4.93560135e-02, 1.42009526e-01, 2.69332260e-01,
          3.23936850e-01, 3.23936850e-01, 3.12345445e-01, 3.23936850e-01,
          3.23936850e-01, 4.91999136e-03, 1.20283663e-03, 5.73095027e-03,
          7.53706205e-04, 2.95485184e-02, 6.34750426e-02, 9.56739932e-02,
          7.58410171e-02, 5.52556626e-02, 1.34406224e-01, 1.49564585e-02,
          3.05220857e-02, 5.40029183e-02, 3.23936850e-01, 2.60672122e-01,
          9.05437469e-02, 1.10242687e-01, 1.97484553e-01, 8.56126542e-04,
          3.36794270e-04, 1.38063985e-03, 2.09475242e-04, 1.66271012e-02,
          2.84618679e-02, 2.75283493e-02, 1.39291110e-02, 7.14196032e-03,
          5.25416955e-02, 6.56081587e-02, 9.30374488e-02, 3.33511680e-01,
          8.69231373e-02, 2.39939038e-02, 2.55345590e-02, 4.95304912e-02,
          4.77583557e-02, 1.31143406e-01, 9.14617479e-02, 1.02586560e-01,
          4.33972359e-01, 4.33972359e-01, 1.62317500e-01, 6.11707121e-02,
          4.33972359e-01, 4.33972359e-01, 0., 0., 0., 1.90744980e-03,
          1.43208494e-03, 0., 0., 0., 0., 7.20584881e-04, 4.02106962e-04,
          0., 1.74710065e-01, 6.72385022e-02, 4.35758877e-04,
          5.90573065e-04, 1.06704859e-02, 2.29431987e-02, 2.87904907e-02,
          7.31618516e-03, 3.95666854e-03, 3.19483370e-01, 2.49777034e-01,
          4.21563238e-02, 7.78226927e-03, 2.54686236e-01, 3.19483370e-01,
          2.21875329e-02, 1.40452874e-03, 4.95882612e-03, 3.19483370e-01,
          1.77121267e-01, 8.34943168e-03, 1.19840598e-03, 2.85196304e-01,
          3.19483370e-01, 1.97291002e-03, 5.73941332e-04, 3.20968538e-04,
          2.43674546e-01, 8.20195153e-02, 3.83777660e-04, 5.17761626e-04,
          4.04333584e-02, 8.13087821e-02, 7.96725508e-03, 4.68653336e-04,
          7.32115190e-03, 3.19483370e-01, 1.95982188e-01, 1.66494981e-03,
          2.07420497e-04, 1.67980388e-01, 3.19483370e-01, 1.63592100e-02,
          5.62695095e-06, 7.41160521e-03, 3.15524578e-01, 9.57360342e-02,
          2.03512912e-03, 2.64570303e-03, 2.37241402e-01, 3.15524578e-01,
          5.62325446e-03, 1.57554632e-06, 2.76200380e-03, 5.77296913e-02,
          1.40938507e-02, 1.20512617e-03, 7.49468431e-03, 7.89885595e-02,
          1.54725194e-01, 1.56508144e-02, 4.75938345e-04, 3.41607518e-02,
          3.15524578e-01, 2.80859560e-01, 3.30632702e-02, 3.62862125e-02,
          3.15524578e-01, 3.15524578e-01, 1.06244991e-02, 3.87181353e-04,
          3.07143182e-02, 3.15524578e-01, 1.42606243e-01, 6.80517629e-02,
          1.03710748e-01, 2.84399480e-01, 3.15524578e-01 ]
      - [ 2.01640114e-01, 2.37614423e-01, 1.73404902e-01, 1.45928683e-02,
          1.28786460e-01, 2.03027114e-01, 2.37614423e-01, 5.69003113e-02,
          3.79133523e-02, 2.37614423e-01, 9.41977426e-02, 1.82517730e-02,
          9.80599448e-02, 2.37614423e-01, 1.43627569e-01, 1.01119727e-01,
          3.56681049e-02, 2.20969155e-01, 1.70603007e-01, 2.37614423e-01,
          2.37614423e-01, 1.39370039e-01, 1.72088355e-01, 1.45221174e-01,
          2.37614423e-01, 2.18230680e-01, 2.02669084e-01, 1.52454838e-01,
          2.68932171e-02, 3.95963266e-02, 1.29539028e-01, 2.37614423e-01,
          4.85911556e-02, 1.01809606e-01, 1.15366355e-01, 2.37614423e-01,
          8.55874866e-02, 3.37049318e-03, 7.61877571e-04, 2.66760081e-01,
          2.66760081e-01, 8.15652963e-03, 1.55664491e-03, 6.75119609e-02,
          2.66760081e-01, 2.93607414e-02, 3.64146382e-03, 7.44974539e-02,
          2.66760081e-01, 1.88664988e-01, 7.25956988e-06, 8.28784518e-03,
          2.66760081e-01, 2.66760081e-01, 1.76238179e-01, 2.46871001e-04,
          1.21260446e-03, 1.21367142e-01, 2.51325876e-01, 1.54825961e-02,
          1.81406410e-03, 1.82120353e-02, 2.66760081e-01, 1.55970365e-01,
          1.45633034e-02, 2.06347495e-01, 2.66760081e-01, 2.33229950e-01,
          8.01955443e-03, 2.37265676e-02, 2.66760081e-01, 2.66760081e-01,
          9.07542929e-03, 4.03907942e-03, 1.30434364e-01, 3.08207810e-01,
          4.43180948e-02, 2.84406742e-05, 3.14304754e-02, 3.08207810e-01,
          2.93976873e-01, 3.82890394e-05, 3.06253613e-04, 1.46175409e-02,
          1.45564359e-02, 7.45833531e-05, 1.11289601e-05, 1.35628656e-02,
          9.20999274e-02, 1.42155644e-02, 1.59590662e-01, 5.52987941e-02,
          3.08207810e-01, 3.08207810e-01, 1.73708439e-01, 1.34831034e-02,
          1.29285932e-01, 3.08207810e-01, 3.08207810e-01, 1.34037718e-01,
          6.44858554e-02, 1.20804392e-01, 1.15532368e-01, 1.25399083e-01,
          2.81195585e-02, 9.35468972e-02, 3.08207810e-01, 2.55469352e-01,
          2.07422748e-01, 2.58981436e-01, 2.06965804e-01, 2.11579397e-01,
          2.58981436e-01, 2.41588473e-01, 2.58981436e-01, 1.68489426e-01,
          2.34436348e-01, 2.31855482e-01, 5.66009060e-03, 2.47877222e-02,
          2.58981436e-01, 2.58981436e-01, 5.17573766e-02, 2.57418267e-02,
          1.00226223e-01, 2.58981436e-01, 1.18653784e-02, 1.07004754e-01,
          2.21435577e-01, 7.75064752e-02, 7.61146694e-02, 6.90562874e-02,
          2.58981436e-01, 2.29434758e-01, 1.53114432e-02, 2.55098604e-02,
          6.27572445e-05, 1.25326950e-03, 8.02635401e-02, 2.19044432e-01,
          1.31680276e-02, 1.73977448e-03, 5.42463968e-03, 4.93277460e-02,
          3.09921950e-01, 0., 1.49704481e-03, 1.56007469e-01,
          3.09921950e-01, 5.96849322e-02, 5.02734911e-03, 2.09232531e-02,
          3.09921950e-01, 3.09921950e-01, 3.02051567e-02, 2.02482849e-01,
          2.53701359e-01, 3.09921950e-01, 3.33438776e-02, 2.41627749e-02,
          1.20880187e-01, 3.09921950e-01, 4.96247932e-02, 8.54746686e-05,
          3.12646618e-04, 5.71023747e-02, 3.09921950e-01, 2.49406323e-02,
          1.32288167e-03, 3.03354370e-03, 7.92532563e-02, 1.02274373e-01,
          1.27898753e-01, 1.34719744e-01, 7.78692588e-02, 3.09921950e-01,
          4.34559882e-02, 1.81635339e-02, 1.20571190e-02, 1.07276745e-01,
          1.68231249e-01, 7.21582398e-02, 2.32392177e-01, 2.15327606e-01,
          2.32392177e-01, 2.88865324e-02, 1.27734438e-01, 2.32392177e-01,
          2.32392177e-01, 1.45941049e-01, 8.71318206e-02, 1.50393978e-01,
          1.19590990e-01, 2.32392177e-01, 6.60217479e-02, 1.53287068e-01,
          2.32392177e-01, 2.32392177e-01, 7.87040144e-02, 2.32392177e-01,
          2.32392177e-01, 6.40814826e-02, 1.73998415e-01, 1.06322929e-01,
          2.32392177e-01, 1.22147135e-01, 5.45187481e-02, 4.61116284e-02,
          1.33355096e-01, 2.04045072e-01, 5.50959222e-02, 1.92703649e-01,
          1.10484913e-01, 2.32392177e-01, 1.58149689e-01, 6.49030283e-02,
          6.46272907e-03, 1.89608056e-02, 2.50492305e-01, 2.93702096e-01,
          6.69547217e-03, 2.23806337e-03, 1.76565662e-01, 2.93702096e-01,
          1.61890686e-01, 6.61958531e-02, 2.43657082e-03, 2.41155061e-03,
          3.26017439e-02, 5.13895229e-03, 2.15685670e-03, 1.45239965e-03,
          5.97930849e-02, 1.01681195e-01, 4.40152213e-02, 3.49212694e-03,
          1.28430009e-01, 2.93702096e-01, 1.46449298e-01, 7.12166773e-03,
          2.28184313e-02, 2.93702096e-01, 2.93702096e-01, 2.93702096e-01,
          1.47350309e-02, 1.06002968e-02, 2.93702096e-01, 2.93702096e-01,
          1.18984751e-01, 2.75848061e-03, 1.60543635e-01, 2.93702096e-01,
          1.81912109e-01, 3.48898247e-02, 9.07986250e-05, 1.53111891e-04,
          1.69841480e-02, 4.04786728e-02, 4.27481224e-04, 1.47133518e-03,
          3.27090137e-02, 3.10856223e-01, 3.05496216e-01, 4.15586233e-02,
          1.14331837e-04, 5.51560372e-02, 3.10856223e-01, 3.21766399e-02,
          1.11961633e-03, 1.61363799e-02, 3.10856223e-01, 8.81028473e-02,
          1.32705682e-04, 3.29098850e-02, 3.10856223e-01, 3.10856223e-01,
          4.07274393e-03, 1.11324824e-02, 1.63057283e-01, 3.10856223e-01,
          2.61904687e-01, 1.03069108e-03, 1.22092330e-04, 2.79214174e-01,
          3.10856223e-01, 2.19421238e-02, 1.25403435e-03, 3.40264440e-02,
          3.05489480e-01, 3.05489480e-01, 2.15088978e-01, 8.52077443e-04,
          6.03534617e-02, 3.05489480e-01, 3.05489480e-01, 5.64829186e-02,
          5.51510369e-03, 4.49206457e-02, 2.33092844e-01, 1.35823190e-01,
          7.51833024e-04, 1.08596226e-02, 3.00704062e-01, 3.05489480e-01,
          6.96357414e-02, 4.30067332e-04, 3.04130167e-01, 2.72679061e-01,
          3.09324125e-03, 0., 1.19412184e-01, 3.05489480e-01,
          8.11987370e-02, 3.79535533e-03, 4.93962225e-03, 1.77694838e-02,
          4.61513884e-02, 1.50625641e-03, 0., 1.02135642e-02,
          1.44182995e-01, 5.09100035e-02, 2.34801206e-03, 5.07436343e-05 ]
      - [ 1.16908111e-01, 2.35223293e-01, 2.35223293e-01, 2.96517406e-02,
          6.07902110e-02, 1.58574343e-01, 2.35223293e-01, 1.18287303e-01,
          4.33472097e-02, 1.24110296e-01, 9.65310186e-02, 4.42183465e-02,
          5.59948385e-02, 2.34278023e-01, 1.27564311e-01, 1.57464400e-01,
          6.49401993e-02, 1.17500298e-01, 2.06444219e-01, 2.35223293e-01,
          2.35223293e-01, 1.56740531e-01, 2.35223293e-01, 1.85070500e-01,
          2.35223293e-01, 2.35223293e-01, 1.82662159e-01, 1.79376647e-01,
          2.35282183e-02, 5.41559346e-02, 1.79379955e-01, 2.35223293e-01,
          3.79929245e-02, 7.08421394e-02, 1.79431275e-01, 2.35223293e-01,
          5.85797913e-02, 1.48173445e-03, 4.36265720e-04, 2.30646119e-01,
          2.72683829e-01, 1.20917633e-02, 1.61320018e-03, 3.20908725e-02,
          2.39614815e-01, 2.66161822e-02, 1.46783539e-03, 7.84342960e-02,
          2.72683829e-01, 2.39890367e-01, 5.43643146e-05, 7.71898916e-03,
          2.56676525e-01, 2.72683829e-01, 2.72683829e-01, 4.62331036e-06,
          2.01593083e-03, 9.43854824e-02, 2.72683829e-01, 1.59432292e-02,
          1.98535927e-05, 2.67906152e-02, 2.72683829e-01, 2.72683829e-01,
          7.89839402e-03, 1.15520209e-01, 2.29645997e-01, 2.72683829e-01,
          1.94900371e-02, 4.72358381e-03, 7.78302625e-02, 2.72683829e-01,
          9.68509261e-03, 2.03007786e-03, 1.70602679e-01, 2.65666544e-01,
          6.26751781e-02, 0., 3.53077166e-02, 2.65666544e-01,
          2.65666544e-01, 1.31774577e-03, 7.01156328e-04, 6.61414191e-02,
          7.26127923e-02, 2.94072175e-04, 0., 3.34166065e-02,
          2.29477793e-01, 4.07038778e-02, 1.96276307e-01, 3.48752253e-02,
          2.65666544e-01, 2.65666544e-01, 2.29203001e-01, 1.76018421e-02,
          8.20502788e-02, 2.65666544e-01, 2.65666544e-01, 1.83041409e-01,
          2.72068530e-02, 2.30225578e-01, 1.74245194e-01, 1.77591279e-01,
          2.51016617e-02, 1.16535224e-01, 2.65666544e-01, 2.65666544e-01,
          1.87144890e-01, 2.76817709e-01, 1.93106651e-01, 1.71801522e-01,
          2.76817709e-01, 2.76817709e-01, 2.76817709e-01, 1.67678505e-01,
          1.40179127e-01, 1.94711179e-01, 8.82826000e-03, 2.43486967e-02,
          2.76817709e-01, 2.76817709e-01, 4.91950586e-02, 7.72643648e-03,
          1.16087541e-01, 2.76817709e-01, 1.82036485e-03, 9.51512828e-02,
          2.76817709e-01, 8.85429382e-02, 1.45276804e-02, 3.72783057e-02,
          2.76817709e-01, 2.76817709e-01, 9.30369645e-03, 2.43368465e-03,
          9.72175530e-06, 3.70498310e-04, 2.62600798e-02, 8.60918835e-02,
          2.70651211e-03, 2.45010899e-03, 9.73159820e-03, 4.33371449e-03,
          3.65297765e-01, 1.20835430e-05, 3.17202602e-03, 1.97859973e-01,
          3.65297765e-01, 3.96055728e-02, 0., 2.74032578e-02,
          3.65297765e-01, 3.65297765e-01, 1.25967190e-02, 5.76309264e-02,
          2.01745555e-01, 3.65297765e-01, 5.26155457e-02, 9.85489576e-04,
          9.50778276e-03, 3.65297765e-01, 7.12381164e-03, 2.23769325e-06,
          1.19754572e-04, 2.93924157e-02, 1.83025032e-01, 6.90877298e-03,
          0., 0., 9.43652447e-03, 6.41076192e-02, 6.62671626e-02,
          1.14717968e-02, 4.05432023e-02, 2.46741250e-01, 2.64504999e-02,
          1.08110521e-03, 9.94392176e-05, 2.77179033e-02, 1.74036503e-01,
          5.21534160e-02, 2.36640483e-01, 1.69882312e-01, 2.36640483e-01,
          3.17018889e-02, 8.77586454e-02, 1.75606310e-01, 2.36640483e-01,
          1.93845659e-01, 5.32297529e-02, 2.36640483e-01, 1.51761740e-01,
          2.36640483e-01, 5.29801622e-02, 2.16704831e-01, 2.36640483e-01,
          2.36640483e-01, 6.39515594e-02, 2.36640483e-01, 2.10755944e-01,
          3.93350087e-02, 1.02617368e-01, 1.09037630e-01, 1.63843751e-01,
          5.11782207e-02, 1.81755349e-02, 4.49390300e-02, 2.36640483e-01,
          2.36640483e-01, 4.60484512e-02, 1.34367138e-01, 1.54468492e-01,
          2.36640483e-01, 1.33041054e-01, 3.16737890e-02, 6.18582452e-03,
          1.26162693e-02, 2.65128821e-01, 2.93897271e-01, 1.26916468e-02,
          2.05335469e-04, 1.45279512e-01, 2.93897271e-01, 1.71611995e-01,
          5.88457733e-02, 2.21888395e-03, 4.79888730e-03, 5.99315427e-02,
          1.05441213e-02, 2.11430970e-03, 3.48479557e-03, 8.82197469e-02,
          1.47106290e-01, 2.78038234e-02, 2.10393569e-03, 1.17984518e-01,
          2.93897271e-01, 1.26142800e-01, 2.02980870e-03, 1.57450065e-02,
          2.93897271e-01, 2.93897271e-01, 2.93897271e-01, 1.13676526e-02,
          1.10118287e-02, 2.93897271e-01, 2.93897271e-01, 7.50784054e-02,
          1.79515500e-03, 1.58392519e-01, 2.93897271e-01, 1.78004995e-01,
          2.70608123e-02, 9.35243734e-05, 1.49558892e-03, 2.11525783e-02,
          3.25071327e-02, 1.07591812e-04, 3.26794782e-03, 5.70173040e-02,
          3.13417435e-01, 2.18450740e-01, 6.04811544e-03, 1.69900688e-03,
          6.28934056e-02, 2.86025941e-01, 5.43585327e-03, 6.17806727e-05,
          2.55861469e-02, 3.13417435e-01, 7.70802572e-02, 1.36689472e-04,
          4.89617363e-02, 3.13417435e-01, 3.13417435e-01, 1.04005414e-03,
          1.29163135e-02, 2.68229365e-01, 3.13417435e-01, 2.31972545e-01,
